  -0.00227,  -0.03860,  -0.02303,   0.04703,  -0.02822,   0.02887,   0.03665,   0.01849,   0.03925,  -0.02303,  -0.05676,   0.05222,  -0.04119,  -0.03600,   0.00811,  -0.04379,  -0.00486,  -0.02562,  -0.00746,   0.10152,  -0.03081,   0.00292,  -0.04897,   0.07298,  -0.01265,  -0.05416,   0.05222,   0.01330,   0.05482,   0.02368,  -0.03341,  -0.05157,   0.04184,  -0.02303,   0.05482,  -0.03600,   0.00033,   0.05741,   0.05741,   0.01330,   0.03146,   0.01330,   0.03406,   0.03665,  -0.03600,  -0.00486,  -0.02043,   0.00811,   0.00033,  -0.01524,   0.02368,  -0.01265,   0.01589,   0.07557,   0.04963,  -0.01524,   0.01330,  -0.02562,  -0.03341,  -0.00486,   0.01330,   0.00552,  -0.01784,   0.01849
  -0.00486,  -0.03341,  -0.04638,  -0.03081,   0.02368,   0.00552,   0.03406,  -0.01524,  -0.01265,   0.01330,   0.01849,  -0.01524,   0.01330,   0.02627,   0.05482,   0.04444,  -0.01524,   0.03146,   0.01589,   0.00292,   0.00292,  -0.03341,   0.04184,   0.02108,  -0.02043,  -0.04897,  -0.01005,   0.06001,   0.07038,  -0.00746,   0.00292,  -0.05935,   0.02627,   0.03925,  -0.03341,   0.04703,   0.00292,  -0.02043,   0.04703,  -0.05157,   0.02627,  -0.03600,   0.03925,  -0.01265,   0.03925,   0.02887,  -0.04638,   0.00033,  -0.02822,  -0.05416,  -0.02043,  -0.03341,   0.02108,   0.03406,   0.00292,   0.02368,   0.05482,  -0.02562,   0.02108,  -0.03081,   0.01589,   0.00552,  -0.02303,   0.10152
  -0.02562,   0.03146,  -0.01524,   0.04444,   0.01071,   0.01589,   0.02887,  -0.05935,  -0.01265,   0.05222,   0.09114,  -0.00227,   0.10931,  -0.02303,   0.06779,   0.00811,   0.00552,  -0.04897,  -0.03341,  -0.11384,  -0.05416,  -0.01524,   0.00033,  -0.05935,  -0.05157,  -0.04119,   0.00033,   0.00811,   0.00811,  -0.03081,   0.02627,  -0.05416,  -0.00227,   0.02627,  -0.03860,   0.05482,   0.04184,  -0.05676,   0.10931,   0.02108,  -0.01784,   0.04444,  -0.03600,  -0.02562,  -0.01524,   0.05222,  -0.03081,  -0.01524,  -0.00227,  -0.02562,   0.03406,  -0.05676,   0.02368,  -0.02303,   0.09633,   0.12228,   0.01849,  -0.02043,  -0.03081,   0.08855,   0.06779,   0.00552,   0.13525,   0.12747
  -0.05416,  -0.04119,  -0.01784,  -0.03860,  -0.02822,  -0.03081,  -0.00227,   0.02368,   0.03146,   0.05222,   0.07298,   0.03146,  -0.08271,   0.02368,   0.09374,   0.04703,  -0.08530,   0.01589,  -0.01005,  -0.04379,  -0.02562,   0.04444,  -0.03081,   0.05741,   0.03146,  -0.02043,   0.00811,   0.01849,   0.00033,   0.00811,  -0.05416,   0.02887,  -0.00227,  -0.01265,   0.00811,   0.02627,  -0.03600,   0.04184,   0.01849,  -0.02043,   0.04963,   0.04184,  -0.01784,  -0.01265,   0.00033,   0.02627,   0.02108,   0.02627,  -0.05416,  -0.00486,   0.01849,  -0.01524,   0.04963,   0.00552,   0.01589,   0.11190,   0.02627,   0.10671,   0.02368,   0.00552,   0.12747,  -0.10865,   0.02368,   0.02368
  -0.04638,  -0.00227,  -0.05676,  -0.04119,   0.02108,   0.04444,   0.04444,  -0.02303,   0.06260,  -0.02822,   0.01071,  -0.00746,  -0.09568,  -0.01784,  -0.02043,  -0.01784,  -0.00486,   0.03146,   0.05222,   0.02108,   0.02108,  -0.03081,   0.02887,  -0.00746,   0.00552,  -0.04119,   0.06260,   0.02108,  -0.03081,   0.06260,  -0.02562,   0.01071,  -0.01005,   0.01330,   0.01071,  -0.04638,   0.04444,   0.02887,   0.02887,  -0.00486,   0.04703,   0.02627,   0.06260,  -0.01265,   0.04444,   0.01330,   0.04444,   0.01071,  -0.04897,  -0.01005,  -0.02303,   0.02368,  -0.02562,   0.01849,   0.03146,   0.00292,  -0.03600,   0.08076,  -0.00227,   0.05482,   0.02887,  -0.03341,  -0.03341,  -0.07492
  -0.04897,  -0.04379,   0.03146,   0.03406,   0.00811,   0.02887,  -0.01265,  -0.02822,   0.02887,  -0.08011,   0.05482,   0.00033,  -0.05416,   0.03925,  -0.09828,  -0.00746,  -0.03860,  -0.01265,   0.06260,   0.06779,  -0.02822,  -0.03341,  -0.00227,  -0.02303,  -0.02043,   0.04444,   0.06260,   0.01849,  -0.01005,   0.00811,  -0.02043,   0.01071,   0.07038,   0.00292,   0.07557,  -0.03860,   0.09893,   0.06260,  -0.01265,   0.07817,  -0.00746,   0.01849,   0.00292,   0.01071,  -0.01005,   0.01330,  -0.00227,   0.01589,  -0.01524,   0.03146,  -0.01524,  -0.04897,  -0.08790,   0.01849,  -0.00227,   0.00033,  -0.01524,   0.02887,  -0.02822,   0.03146,  -0.01265,  -0.01784,  -0.06714,  -0.03341
   0.01071,   0.01589,   0.02108,   0.10671,   0.01330,   0.03146,   0.00033,  -0.04119,  -0.05157,   0.07557,  -0.01524,  -0.02562,   0.14304,  -0.02562,  -0.01784,  -0.02303,   0.07817,  -0.03600,  -0.04638,  -0.10087,  -0.02562,   0.00552,  -0.03081,  -0.03600,  -0.04379,   0.02627,  -0.02822,   0.03146,  -0.08790,   0.06260,   0.01589,   0.00033,   0.07817,   0.03146,  -0.12163,   0.05741,  -0.03341,  -0.06714,  -0.04638,   0.04963,  -0.02562,  -0.05676,   0.00033,  -0.04638,  -0.04638,  -0.05935,   0.04703,  -0.02043,  -0.05416,  -0.00227,  -0.02303,  -0.02822,  -0.00227,   0.00292,   0.05222,  -0.02303,   0.10412,  -0.01265,  -0.01524,  -0.13460,  -0.09049,   0.12228,   0.04963,   0.11190
  -0.04638,  -0.03081,   0.03406,   0.02368,   0.03146,  -0.18390,  -0.02043,  -0.05935,   0.10152,  -0.01524,   0.13266,   0.08076,   0.15082,  -0.01265,   0.05222,   0.04184,  -0.02303,  -0.03600,  -0.00746,  -0.02043,   0.03665,  -0.06973,   0.00552,  -0.00486,  -0.04379,  -0.00227,  -0.20466,  -0.06195,  -0.00227,  -0.09049,  -0.03860,  -0.01524,   0.16899,  -0.04119,  -0.09309,   0.14823,  -0.02043,  -0.03081,  -0.01005,  -0.09828,   0.11450,  -0.04379,  -0.10606,   0.01589,  -0.02043,   0.11969,  -0.01784,   0.02108,   0.05222,  -0.02822,   0.12228,   0.05741,  -0.12163,  -0.14498,   0.23385,  -0.02822,   0.08076,  -0.06195,   0.07038,  -0.07233,  -0.08790,  -0.03600,   0.03925,   0.16899
   0.04184,   0.02627,  -0.00746,  -0.05157,   0.00292,  -0.07233,  -0.00486,  -0.00486,   0.02627,   0.06779,   0.04444,  -0.06195,  -0.03860,  -0.01265,   0.16899,  -0.02562,  -0.08271,   0.01071,  -0.00486,  -0.07233,  -0.05157,   0.05482,   0.00033,  -0.01524,  -0.04379,   0.00552,  -0.06454,  -0.03600,   0.07557,   0.03146,  -0.12163,  -0.04379,   0.08855,  -0.03341,   0.07298,  -0.06714,  -0.04379,   0.04184,  -0.03081,  -0.13201,   0.12747,   0.00552,  -0.07233,  -0.03600,  -0.00486,   0.04963,  -0.02562,  -0.02562,  -0.04119,  -0.01524,   0.00292,   0.03925,   0.02368,  -0.06973,   0.00552,   0.04184,   0.00292,   0.11969,   0.02108,   0.09374,   0.07298,  -0.08790,   0.15082,   0.03146
   0.00292,   0.00292,  -0.05157,   0.04963,  -0.04897,   0.02368,   0.00292,   0.00552,  -0.01784,   0.01071,   0.05222,  -0.11384,  -0.05416,   0.04963,   0.03925,   0.02108,  -0.02303,   0.02627,   0.08336,  -0.03600,   0.00292,   0.07817,  -0.00227,  -0.04379,  -0.04638,   0.03146,   0.04184,  -0.06454,   0.04184,  -0.04119,  -0.02043,  -0.02562,  -0.02562,   0.00292,   0.06779,   0.06260,   0.00811,   0.04963,  -0.00746,   0.00292,  -0.03860,   0.11190,   0.05482,   0.01849,  -0.03081,  -0.07233,  -0.04897,  -0.03600,  -0.03341,  -0.04638,  -0.07752,   0.02368,   0.06260,   0.02887,   0.00552,   0.02627,  -0.08271,   0.11190,  -0.02822,   0.01849,   0.07817,  -0.05416,   0.05741,  -0.04897
  -0.00227,  -0.02303,  -0.05676,   0.02627,  -0.00227,   0.07298,  -0.04897,   0.01589,   0.00811,  -0.03860,  -0.04119,  -0.06195,  -0.06195,  -0.05416,  -0.01784,  -0.02822,  -0.01265,  -0.03600,   0.15342,   0.10152,  -0.02822,   0.03665,  -0.02303,  -0.03600,  -0.04119,   0.02368,   0.02627,  -0.02822,   0.04444,   0.01071,  -0.02303,   0.02368,  -0.05416,  -0.02562,   0.11450,   0.00292,   0.04444,   0.09374,  -0.03600,  -0.05935,  -0.01524,   0.11969,   0.07557,  -0.01265,  -0.04379,   0.05741,  -0.04638,   0.04444,  -0.02303,   0.04184,   0.05741,  -0.01005,   0.02627,   0.04184,  -0.01005,   0.05222,  -0.03860,  -0.00227,  -0.03600,   0.06520,  -0.04379,  -0.02822,   0.05741,  -0.11384
   0.03406,  -0.03081,  -0.04119,  -0.01265,   0.01849,   0.00292,  -0.01524,   0.00033,   0.01849,   0.07038,  -0.19428,  -0.01784,   0.05741,  -0.01524,   0.06001,  -0.03860,   0.00292,  -0.02562,  -0.00486,  -0.04379,  -0.01265,  -0.01005,  -0.03860,   0.08076,  -0.00746,   0.03406,  -0.04119,  -0.00227,   0.14563,  -0.10606,  -0.04119,   0.00811,  -0.04638,  -0.01524,   0.03925,   0.09893,   0.03406,  -0.01784,   0.10152,  -0.06973,   0.06260,  -0.02822,   0.06260,   0.02368,   0.03406,   0.04444,  -0.02562,  -0.04897,   0.01589,   0.03665,  -0.02303,   0.00033,   0.01849,  -0.05676,   0.01589,  -0.00486,   0.00811,  -0.02303,  -0.05935,  -0.02303,  -0.04379,  -0.02822,   0.02108,  -0.02562
   0.01071,  -0.02822,  -0.04638,   0.08595,   0.00811,  -0.04379,  -0.02303,   0.01849,  -0.00227,   0.05222,  -0.19428,   0.00811,   0.11190,   0.02887,   0.17418,   0.03406,  -0.10606,  -0.00746,  -0.06195,   0.07557,   0.04444,   0.02627,  -0.00227,   0.10412,  -0.03600,   0.01330,  -0.24099,   0.04963,   0.10412,  -0.12682,  -0.05157,   0.02887,  -0.04638,  -0.01784,  -0.00227,   0.17418,  -0.05935,  -0.09568,   0.03146,  -0.17871,   0.19753,  -0.03081,  -0.05157,   0.01071,  -0.04379,   0.15601,   0.00811,  -0.03600,  -0.02043,   0.03925,   0.06001,   0.02108,  -0.11644,  -0.10865,  -0.00486,  -0.02043,   0.04444,  -0.05157,  -0.01265,  -0.00227,  -0.11644,  -0.09828,   0.09893,   0.03925
   0.00552,  -0.02562,  -0.01524,  -0.05416,   0.00292,  -0.04638,   0.01071,  -0.04897,   0.04963,  -0.01005,   0.10412,   0.05482,  -0.06714,   0.02887,  -0.00227,  -0.00486,   0.02627,   0.00292,   0.16639,   0.03406,  -0.02303,   0.03406,   0.03406,   0.04703,  -0.00486,  -0.01005,  -0.04897,  -0.02562,   0.02368,   0.06260,  -0.07233,   0.01849,   0.09114,  -0.01005,  -0.01005,  -0.09049,  -0.05676,   0.09633,  -0.03341,  -0.15536,  -0.00227,  -0.00746,  -0.03341,  -0.03081,  -0.04119,  -0.04119,  -0.03081,  -0.02303,   0.01071,  -0.01005,   0.10671,   0.04184,  -0.03600,  -0.02562,   0.09374,  -0.07492,   0.03146,   0.02627,   0.01589,   0.00292,  -0.09049,  -0.01005,  -0.11125,   0.09114
  -0.01005,  -0.01265,   0.01589,  -0.03341,   0.00292,  -0.05157,  -0.04379,  -0.05157,   0.04703,   0.07817,   0.09114,  -0.08530,  -0.02822,  -0.00746,   0.01071,   0.02627,  -0.02043,  -0.04379,   0.11709,   0.05482,  -0.00486,   0.02108,   0.01589,  -0.02043,  -0.02822,  -0.05935,  -0.02562,  -0.11125,  -0.16314,   0.05482,   0.00033,   0.00033,   0.04963,  -0.01524,   0.05222,  -0.02043,  -0.16055,   0.10412,  -0.06454,  -0.05157,   0.07038,   0.03925,  -0.04638,  -0.00227,  -0.01524,  -0.01524,  -0.05416,   0.01849,   0.02368,   0.02368,  -0.01005,  -0.01265,  -0.03600,   0.03146,   0.09633,   0.03665,   0.07817,   0.10412,  -0.04379,  -0.10346,  -0.04379,   0.02887,   0.03406,  -0.04897
  -0.02043,  -0.01005,  -0.02562,  -0.00486,  -0.05676,  -0.04638,  -0.02822,  -0.00486,   0.10152,  -0.08790,   0.01849,   0.01071,  -0.03081,   0.01330,  -0.05157,   0.01330,  -0.01784,   0.02108,   0.02368,   0.16380,  -0.04897,  -0.02822,  -0.02043,   0.06779,  -0.00486,   0.00811,   0.05222,   0.03925,  -0.08530,   0.15082,   0.00811,   0.01330,   0.06520,   0.04444,   0.01849,  -0.09568,  -0.03860,   0.05222,   0.03665,  -0.04638,   0.02108,  -0.01784,   0.01849,  -0.00227,  -0.02562,  -0.02043,  -0.01784,  -0.02303,  -0.03860,  -0.04379,   0.09633,  -0.03341,  -0.02043,   0.05222,   0.03146,  -0.08011,  -0.00486,   0.02108,  -0.03600,  -0.01784,  -0.02043,   0.10152,  -0.11125,  -0.04119
   0.00292,  -0.05416,  -0.01524,   0.03146,  -0.00486,  -0.00227,  -0.01524,  -0.01265,   0.00033,   0.02627,  -0.06973,  -0.04379,   0.07038,   0.00292,   0.06260,  -0.05416,   0.04703,   0.00033,   0.01330,   0.05222,   0.04444,   0.03406,   0.03665,   0.04444,  -0.03860,  -0.03081,   0.07298,  -0.08790,  -0.00227,   0.07557,   0.05222,  -0.06714,  -0.05157,  -0.01265,  -0.07233,   0.04444,  -0.03341,   0.04963,  -0.02822,  -0.03341,  -0.04119,  -0.04119,  -0.05157,  -0.04897,   0.02108,  -0.02043,   0.03146,   0.02887,  -0.03600,  -0.04897,  -0.01265,  -0.01784,   0.04444,   0.00552,   0.00552,  -0.04379,   0.02887,  -0.01784,  -0.01784,  -0.08530,  -0.02822,  -0.01005,  -0.08530,  -0.00746
   0.00811,   0.02368,  -0.01005,   0.03406,   0.02887,  -0.07752,   0.02887,  -0.00227,  -0.02822,  -0.00486,  -0.03860,  -0.04897,   0.07557,  -0.04379,   0.10152,   0.00292,  -0.08530,   0.00292,   0.05741,  -0.03600,   0.03146,   0.03146,  -0.01524,  -0.02043,   0.04184,   0.01589,  -0.13720,   0.00811,   0.11450,  -0.01005,  -0.07492,   0.01849,   0.07298,   0.03146,   0.05222,   0.09374,  -0.02562,   0.01589,  -0.13720,  -0.05935,   0.06001,   0.03665,  -0.06973,   0.03146,   0.02627,   0.08855,  -0.03081,  -0.04638,   0.00292,  -0.02303,  -0.02822,  -0.02303,  -0.07233,  -0.04379,   0.02627,   0.02108,  -0.03341,   0.06520,   0.01849,  -0.04638,  -0.05416,  -0.06714,  -0.01524,  -0.03860
  -0.04638,  -0.03600,  -0.01005,  -0.04897,  -0.04119,  -0.09568,   0.01589,   0.00292,   0.09633,  -0.01005,   0.09633,   0.04184,  -0.07752,   0.00292,   0.02627,  -0.02303,  -0.06714,  -0.01005,   0.01330,  -0.04119,   0.02368,  -0.01784,   0.00811,   0.13266,  -0.04897,   0.03406,  -0.04379,  -0.02043,   0.03146,  -0.00486,  -0.02822,   0.00811,   0.01071,   0.02368,   0.04184,  -0.04379,  -0.04638,   0.07557,   0.06260,  -0.05935,   0.06260,  -0.05676,  -0.03341,   0.02627,   0.04703,   0.08595,   0.00552,   0.02108,  -0.03341,   0.02368,   0.01071,  -0.00746,  -0.06714,  -0.03860,   0.04444,   0.04184,  -0.04119,  -0.00486,   0.02887,   0.00033,   0.04444,  -0.07752,  -0.05935,   0.06001
  -0.05676,   0.02108,  -0.01784,   0.05741,   0.01330,  -0.01005,  -0.04379,  -0.00746,   0.00811,   0.04184,   0.09114,  -0.01524,   0.07298,  -0.04638,  -0.01524,   0.03925,   0.06260,   0.00811,   0.06001,   0.01849,  -0.05157,   0.06779,  -0.05676,   0.03146,   0.02887,  -0.03081,   0.00292,  -0.08790,  -0.02822,   0.09374,   0.10412,  -0.04897,  -0.00486,   0.02887,  -0.07233,  -0.03600,  -0.02562,   0.06001,  -0.03341,  -0.03860,   0.02627,   0.00292,  -0.02303,  -0.02822,  -0.02303,  -0.04638,  -0.00486,   0.03406,  -0.00746,   0.03925,  -0.00486,   0.03146,   0.01330,   0.05741,  -0.05157,  -0.02822,   0.05222,   0.00811,   0.00033,  -0.04379,  -0.06714,   0.04963,   0.00811,  -0.00227
   0.02368,  -0.03081,   0.02887,   0.10412,  -0.04638,  -0.02822,   0.00292,  -0.04119,  -0.03081,   0.06779,   0.04444,  -0.04119,   0.04703,   0.05482,   0.01071,   0.00552,  -0.00486,   0.00811,   0.06001,  -0.00746,   0.00811,   0.02368,   0.05482,   0.04444,  -0.04897,  -0.00486,  -0.02562,  -0.03341,   0.00552,  -0.00746,   0.01589,   0.01330,   0.01330,   0.01330,   0.00292,  -0.03081,   0.01071,   0.08076,  -0.01265,   0.00292,   0.04703,   0.02887,  -0.07752,   0.04444,   0.03146,  -0.05416,   0.01589,   0.01330,  -0.01524,  -0.00746,  -0.02822,  -0.04119,  -0.02043,  -0.04897,   0.02887,  -0.02562,   0.03146,   0.05482,   0.02368,  -0.02303,  -0.07492,   0.04963,   0.02887,  -0.05676
  -0.03081,  -0.01005,  -0.05416,  -0.10346,  -0.02303,   0.00292,   0.01071,  -0.03860,   0.07557,   0.07817,   0.09633,  -0.13201,  -0.10346,   0.00033,   0.10412,  -0.02822,   0.01330,  -0.01784,   0.18715,  -0.00227,  -0.01005,   0.10931,  -0.02822,   0.00811,  -0.03860,   0.05222,   0.06001,  -0.11644,  -0.06973,  -0.04119,   0.05222,  -0.01265,  -0.08011,   0.03925,   0.03146,  -0.11384,  -0.16574,   0.14044,  -0.12422,   0.01330,   0.02108,  -0.04897,  -0.03081,   0.00292,   0.01589,  -0.06973,   0.00033,   0.01849,  -0.00227,   0.01589,  -0.03341,  -0.03341,   0.06260,   0.07817,   0.02887,   0.02887,   0.06001,   0.05222,  -0.03081,  -0.07233,   0.00292,  -0.00227,   0.06260,  -0.03081
  -0.05416,  -0.02303,   0.02108,   0.02368,   0.01849,  -0.00486,  -0.04638,  -0.02562,  -0.10606,   0.19753,   0.06779,  -0.12682,   0.03146,   0.04444,   0.10671,   0.02887,   0.04444,   0.01849,   0.04444,  -0.02822,  -0.04638,   0.15601,  -0.01005,   0.01849,  -0.04379,  -0.01005,  -0.10606,  -0.15277,   0.00552,  -0.07492,  -0.01005,  -0.02303,  -0.05157,   0.01330,  -0.07752,   0.12228,  -0.14239,   0.01849,  -0.16833,  -0.09309,   0.14044,  -0.10087,  -0.05676,  -0.03341,  -0.03860,  -0.13460,  -0.02043,  -0.03081,  -0.04119,   0.03665,  -0.02562,  -0.04638,   0.02627,  -0.06195,   0.06001,  -0.01524,   0.15861,   0.10152,  -0.04379,   0.00811,  -0.05676,  -0.03860,   0.04963,   0.08076
   0.00811,  -0.02822,  -0.06195,   0.08595,   0.01071,  -0.01784,  -0.00746,  -0.05935,   0.01071,   0.04444,   0.02887,  -0.02303,   0.01071,   0.03925,   0.05482,  -0.04638,  -0.01265,   0.03406,  -0.01784,   0.11190,   0.01589,   0.00811,   0.02368,   0.08595,   0.03146,  -0.02043,  -0.01784,  -0.05157,   0.01589,   0.00033,   0.08336,  -0.05676,  -0.03081,   0.00552,   0.04703,  -0.10346,  -0.06973,   0.07817,   0.00811,  -0.02822,   0.10671,  -0.09828,  -0.01005,   0.00811,   0.03406,  -0.02822,  -0.02822,  -0.02043,  -0.03341,  -0.02043,  -0.05157,   0.00811,   0.01330,  -0.03081,  -0.02562,  -0.02303,   0.04703,   0.06520,   0.04184,  -0.02303,  -0.06195,   0.01071,   0.10412,  -0.06454
   0.02368,   0.00292,   0.02887,  -0.02303,  -0.01784,   0.02108,  -0.05157,   0.02108,   0.05222,  -0.00227,   0.01071,  -0.03081,   0.03665,  -0.03600,   0.02368,   0.01849,   0.02627,  -0.04119,   0.09114,   0.02887,   0.01330,   0.03925,  -0.04119,   0.07557,  -0.03860,   0.00033,   0.00033,  -0.01265,  -0.02822,   0.03925,   0.07817,  -0.05157,   0.03406,   0.04444,   0.02887,  -0.07752,  -0.01265,   0.10671,   0.05482,   0.02368,   0.01589,   0.03146,  -0.02822,  -0.02562,   0.01071,  -0.03081,  -0.04638,  -0.04379,   0.03406,  -0.04379,  -0.06454,  -0.05935,  -0.03341,   0.03146,   0.04444,   0.02108,   0.04963,   0.09114,   0.00552,  -0.05157,   0.01330,   0.01071,   0.03406,  -0.08011
  -0.03081,   0.04184,   0.00552,  -0.01524,   0.02368,   0.01071,   0.02368,   0.00292,   0.05222,   0.02108,  -0.06454,   0.04444,   0.02108,  -0.03341,   0.12228,  -0.04119,   0.01330,  -0.01005,  -0.01265,   0.00292,  -0.05157,  -0.00486,  -0.05676,   0.02108,   0.00292,   0.03406,  -0.02043,   0.03406,   0.01849,   0.02887,   0.02627,  -0.04119,  -0.03860,  -0.04638,   0.00033,   0.00552,   0.03665,   0.00033,   0.02887,  -0.00486,   0.05482,   0.03406,   0.01071,   0.04184,  -0.02822,   0.08595,  -0.03600,   0.03406,   0.00292,   0.03665,  -0.03860,  -0.03860,  -0.05416,  -0.10346,  -0.01784,   0.05741,  -0.02303,  -0.00227,   0.07817,  -0.06454,   0.07817,  -0.02822,   0.13266,  -0.00746
  -0.03860,  -0.02562,  -0.03600,   0.00811,  -0.02303,   0.00292,  -0.02303,   0.03925,   0.07817,  -0.03081,   0.00811,  -0.03860,   0.06260,  -0.04379,   0.00552,   0.01071,   0.04963,   0.03665,   0.02368,  -0.01005,   0.00292,  -0.01524,   0.03925,   0.03665,   0.03665,  -0.02043,   0.06260,  -0.02822,   0.02368,  -0.05157,   0.01849,   0.02887,   0.02368,  -0.05676,  -0.01005,   0.01330,   0.03406,  -0.00486,   0.09633,   0.02368,  -0.05935,  -0.01524,  -0.00746,  -0.03341,   0.04444,  -0.01524,   0.03925,  -0.05416,  -0.02303,   0.01071,  -0.00746,  -0.02303,  -0.01265,   0.00033,   0.05741,   0.03665,   0.04184,  -0.06454,   0.00292,   0.02368,  -0.01524,  -0.01524,  -0.02303,  -0.02822
  -0.02822,  -0.03341,   0.02108,   0.05482,   0.03146,  -0.00746,  -0.04638,  -0.03860,   0.03146,  -0.08790,  -0.01265,   0.01589,  -0.05157,  -0.01005,  -0.06973,   0.01330,   0.01849,  -0.04897,   0.00292,   0.00292,  -0.01265,  -0.04638,   0.02627,   0.04184,   0.00552,   0.03665,   0.03925,   0.03925,   0.04444,   0.03665,  -0.04119,   0.04184,   0.02887,  -0.01005,   0.04184,   0.00552,  -0.03081,   0.07557,   0.00552,   0.04184,   0.05482,   0.00033,   0.00552,   0.00033,  -0.04119,   0.00292,  -0.01784,  -0.03860,   0.04184,   0.00811,   0.04184,  -0.05676,   0.02887,   0.05222,   0.04444,  -0.01265,  -0.05157,  -0.02043,  -0.00746,   0.05741,   0.00811,   0.00552,  -0.02562,  -0.01265
   0.02108,  -0.01005,   0.04963,  -0.03081,   0.01849,  -0.01005,   0.01589,  -0.04897,  -0.00746,  -0.02043,   0.02627,   0.04963,   0.01589,   0.00811,  -0.00746,  -0.01524,   0.04963,   0.02368,   0.02887,   0.00811,   0.04184,  -0.03600,   0.02627,   0.03925,   0.02108,  -0.02303,   0.03925,   0.00811,  -0.00227,   0.00552,  -0.02043,  -0.01524,   0.01071,  -0.03341,   0.05222,  -0.05935,   0.02887,   0.00811,   0.03665,   0.01589,   0.06260,   0.00033,   0.01589,   0.02887,   0.01071,   0.03925,   0.01589,  -0.04638,  -0.00746,  -0.05157,  -0.00227,   0.02627,  -0.05676,  -0.02562,  -0.00486,  -0.04638,  -0.00227,  -0.03860,   0.01071,   0.02627,  -0.02562,   0.03406,  -0.04897,   0.08336
  -0.00227,   0.00552,  -0.02043,   0.04963,  -0.02043,  -0.04897,   0.01071,  -0.06454,   0.00292,   0.02887,   0.00552,  -0.03341,  -0.01265,  -0.04897,  -0.04638,   0.01849,  -0.00746,  -0.01784,   0.00033,  -0.01265,  -0.04897,   0.02108,   0.02887,   0.06520,  -0.02303,   0.03406,   0.00811,   0.02108,   0.03406,   0.08336,  -0.00486,   0.02627,   0.03406,  -0.03341,  -0.00227,  -0.02822,  -0.03860,   0.03146,  -0.01524,  -0.06195,   0.08855,   0.01071,  -0.03860,   0.00292,  -0.03860,  -0.01784,   0.00552,  -0.00486,  -0.02822,   0.02368,   0.03406,  -0.03341,   0.02368,  -0.00227,   0.01589,   0.04184,  -0.00486,   0.02108,  -0.02303,  -0.01524,   0.03406,  -0.02562,  -0.02822,   0.05482
  -0.05416,   0.03146,   0.01330,   0.00292,   0.03925,   0.02108,  -0.01265,  -0.03341,  -0.02303,  -0.01784,  -0.07752,  -0.03860,   0.03146,  -0.05157,   0.00033,  -0.04638,   0.09893,   0.01330,  -0.00227,  -0.01784,   0.02887,   0.02887,   0.01330,   0.00033,  -0.02043,  -0.04119,   0.05482,   0.02887,   0.04703,   0.00292,   0.02627,   0.03925,   0.05222,  -0.00486,  -0.06454,  -0.04119,  -0.05416,   0.05741,   0.04184,  -0.01524,   0.03406,   0.05222,   0.03925,  -0.01005,  -0.01524,  -0.08271,   0.02368,   0.00811,  -0.04379,  -0.01524,   0.01330,   0.00033,   0.03665,   0.07557,  -0.01784,  -0.04379,   0.11190,  -0.05157,   0.02368,  -0.10087,   0.01330,   0.04963,   0.02108,   0.00552
   0.01589,   0.01330,  -0.04119,   0.04703,   0.00033,   0.02368,  -0.00227,  -0.00746,   0.01071,   0.06779,   0.03925,  -0.03341,  -0.00227,   0.01071,   0.04444,  -0.00486,   0.04184,   0.02108,   0.01589,   0.02108,   0.04184,   0.00811,   0.03146,  -0.04638,   0.01330,  -0.00746,  -0.03081,  -0.04119,   0.03146,  -0.05157,   0.07557,  -0.04638,   0.01071,   0.00811,  -0.12682,   0.03925,  -0.06454,  -0.00486,   0.03406,  -0.01784,  -0.01784,  -0.04638,  -0.02303,  -0.00227,   0.00292,  -0.06973,   0.00292,  -0.04119,  -0.02303,   0.03406,  -0.01524,   0.00033,   0.03925,   0.06779,  -0.02303,  -0.06714,   0.07557,  -0.02043,   0.00552,  -0.01265,  -0.02043,   0.00552,  -0.01265,   0.04444
  -0.03600,  -0.03600,  -0.02562,   0.06001,  -0.01784,   0.00033,  -0.04897,   0.01589,  -0.05416,   0.02108,  -0.03600,   0.00292,   0.03406,   0.01330,  -0.04119,  -0.00746,   0.02368,  -0.02822,  -0.02043,  -0.02822,   0.01330,  -0.01005,   0.05222,   0.03925,  -0.01265,   0.01589,   0.00033,   0.07298,   0.06779,   0.06260,  -0.01005,   0.00033,   0.00811,  -0.04379,  -0.06714,  -0.00227,   0.00811,   0.04703,   0.01589,  -0.05416,   0.06001,  -0.01784,  -0.01524,  -0.04638,   0.01071,   0.03665,   0.02887,  -0.04379,  -0.03341,  -0.03600,  -0.08530,   0.03665,   0.04444,   0.04963,  -0.01784,   0.01330,   0.01330,   0.03925,  -0.01005,  -0.07492,  -0.01524,  -0.01005,  -0.04897,  -0.02562
  -0.04897,  -0.03081,  -0.05157,   0.06001,  -0.05157,   0.00033,   0.03925,  -0.02303,   0.02627,   0.01849,   0.06779,  -0.05676,  -0.05416,   0.01589,   0.03925,   0.03146,  -0.04638,  -0.02303,   0.00033,   0.00552,  -0.01524,   0.04703,   0.02368,   0.08336,  -0.01265,  -0.05676,   0.09374,  -0.02562,   0.00292,   0.02368,  -0.03600,   0.01330,   0.02887,   0.01330,   0.03925,  -0.00227,  -0.02303,   0.05482,  -0.03081,   0.03665,   0.01849,  -0.01005,   0.05222,   0.02627,  -0.04379,   0.01589,   0.03665,   0.04444,   0.01330,  -0.05676,  -0.02043,  -0.04379,  -0.01784,   0.07298,   0.02627,   0.04703,  -0.01524,   0.05482,  -0.01005,  -0.01005,   0.07298,  -0.06714,   0.02627,  -0.02562
   0.02108,   0.03406,  -0.00227,   0.04184,  -0.04897,   0.00033,   0.01589,  -0.03860,  -0.00746,   0.03665,  -0.02303,  -0.04119,  -0.03341,   0.03146,   0.05482,  -0.05157,   0.02368,  -0.01784,  -0.01524,  -0.00486,  -0.01524,   0.02368,   0.03146,   0.09114,   0.01071,   0.03146,   0.07557,   0.06001,   0.03406,  -0.02562,   0.01589,  -0.03600,  -0.00746,   0.00292,  -0.04638,   0.02887,   0.03925,   0.03146,  -0.02303,   0.04963,   0.02108,   0.00811,  -0.00746,  -0.04638,  -0.04119,  -0.01005,   0.00292,  -0.04379,   0.02627,   0.01071,  -0.07492,  -0.03860,   0.02887,   0.01071,  -0.07233,  -0.05157,  -0.01265,   0.06260,  -0.05935,  -0.02822,  -0.02043,  -0.00486,  -0.06714,  -0.01524
   0.00292,   0.00552,  -0.03600,   0.02627,   0.03146,   0.02108,  -0.02043,  -0.01524,  -0.05157,   0.01849,  -0.05157,  -0.03081,   0.09374,   0.02627,   0.03665,   0.02368,   0.07038,  -0.04119,   0.01071,  -0.18390,   0.00033,   0.09374,  -0.01005,  -0.05157,  -0.03081,   0.03925,  -0.00227,   0.03925,   0.05482,  -0.09828,   0.03665,   0.01071,  -0.01524,   0.02887,  -0.09309,   0.00292,  -0.01005,  -0.04638,  -0.00746,  -0.00746,   0.00552,   0.01071,  -0.04638,   0.00811,  -0.04119,  -0.02562,  -0.04119,  -0.02562,   0.03925,  -0.04379,  -0.05676,  -0.02303,   0.04703,   0.02368,  -0.01265,   0.03406,   0.07817,  -0.04638,  -0.00486,  -0.09049,   0.01071,  -0.00486,   0.01589,   0.10931
  -0.01265,  -0.04897,   0.00292,   0.08595,  -0.05157,  -0.01005,  -0.00227,  -0.02043,   0.00811,   0.05222,   0.03925,  -0.04897,   0.07817,   0.02627,  -0.00227,   0.03665,  -0.00746,  -0.05416,  -0.04638,  -0.07492,   0.03665,   0.04703,   0.02108,   0.00292,  -0.00486,   0.00552,  -0.04379,   0.02627,  -0.03600,   0.00292,   0.00552,   0.03406,   0.00292,  -0.04638,  -0.08790,   0.04184,   0.02887,  -0.11644,  -0.05935,   0.11969,  -0.02822,   0.04444,  -0.10865,  -0.01265,  -0.04119,   0.04703,  -0.01265,   0.00811,  -0.01005,  -0.00486,   0.01330,   0.00552,   0.01849,  -0.01784,  -0.01265,  -0.03600,   0.05222,  -0.04638,   0.00292,  -0.08530,   0.05482,   0.04444,   0.07817,   0.08595
   0.01071,   0.02627,  -0.01784,   0.01071,  -0.00486,  -0.04897,  -0.03600,   0.01330,  -0.00746,   0.00033,   0.03146,   0.08336,   0.00552,  -0.01784,   0.01589,  -0.02822,  -0.03081,   0.01071,  -0.01265,   0.06779,  -0.03860,  -0.09828,  -0.03860,   0.12228,   0.02627,  -0.00486,  -0.01005,   0.09114,  -0.01265,   0.12228,   0.00292,  -0.02043,  -0.01265,  -0.01265,   0.02627,  -0.01005,   0.09114,   0.01849,  -0.00486,   0.00811,   0.00552,  -0.00486,  -0.05935,  -0.01784,   0.04184,   0.01849,  -0.05416,   0.02108,  -0.02043,  -0.02043,   0.04444,   0.01849,  -0.01005,   0.02108,  -0.01784,   0.05222,  -0.05416,   0.03925,  -0.05157,   0.02368,   0.08076,   0.07817,  -0.04638,  -0.01005
   0.02627,  -0.01784,   0.00033,  -0.05676,  -0.02043,   0.08595,   0.04184,  -0.02562,  -0.02822,   0.04703,   0.04444,   0.03665,  -0.03341,  -0.04897,  -0.00227,   0.01589,   0.07298,   0.03665,   0.10412,  -0.05157,  -0.05157,   0.06520,  -0.01784,  -0.04638,   0.02887,   0.03665,   0.10931,  -0.06714,   0.00292,   0.07298,   0.01071,   0.00292,   0.02368,   0.02108,   0.05482,  -0.01784,  -0.00227,   0.07298,  -0.00227,   0.07557,  -0.10087,   0.04184,   0.00033,  -0.01784,  -0.04119,  -0.05157,  -0.00746,  -0.03341,   0.03925,  -0.03341,   0.02108,   0.03146,   0.10152,   0.01849,  -0.03081,   0.04703,  -0.03600,   0.03925,  -0.05416,   0.03146,   0.07038,   0.03406,   0.04184,   0.00033
  -0.02043,   0.00811,  -0.05935,   0.07557,   0.02887,   0.07557,   0.02368,   0.02108,  -0.07492,   0.06260,   0.05741,  -0.08011,   0.02108,  -0.03081,  -0.03341,  -0.04638,  -0.04379,  -0.04119,   0.04184,   0.01071,  -0.02562,   0.01849,   0.00292,   0.00033,  -0.03860,  -0.03860,   0.08336,  -0.02822,   0.03665,  -0.08790,   0.01071,  -0.05157,  -0.05157,  -0.01784,   0.00033,   0.01589,   0.00811,   0.01589,   0.01849,   0.00292,   0.01330,   0.00033,   0.05741,  -0.03600,  -0.00746,  -0.02043,  -0.03860,  -0.04897,   0.00292,   0.01849,  -0.05676,  -0.04897,   0.05222,   0.04963,  -0.10346,  -0.00746,   0.01071,   0.01849,  -0.01265,   0.00811,  -0.04379,  -0.05157,  -0.01784,  -0.07233
   0.02627,   0.01589,  -0.01524,   0.01589,  -0.00486,   0.06260,  -0.03081,   0.02108,  -0.02303,  -0.05157,  -0.10606,   0.01589,   0.03925,   0.03146,  -0.06195,  -0.01524,  -0.03081,   0.02887,  -0.05676,  -0.03341,  -0.02303,   0.01589,   0.01589,  -0.07492,   0.03665,  -0.01784,   0.00811,   0.03146,  -0.02822,  -0.04638,   0.00292,  -0.01005,  -0.08271,  -0.03600,  -0.07233,   0.01071,   0.01589,  -0.06195,  -0.08790,   0.05741,   0.03146,   0.06001,  -0.07752,  -0.03860,   0.03146,   0.03406,  -0.00227,  -0.04638,  -0.02043,  -0.02303,   0.09633,  -0.00486,  -0.00227,  -0.01524,   0.01330,   0.00811,   0.05222,  -0.09568,   0.01330,   0.01849,   0.02368,   0.00811,   0.01330,   0.11709
  -0.05416,  -0.04897,   0.02887,   0.05741,  -0.03860,  -0.00746,   0.00033,  -0.03081,  -0.05676,  -0.05935,   0.07298,   0.01330,   0.01589,  -0.03860,   0.00033,   0.00552,  -0.04638,   0.01589,   0.01330,  -0.05935,  -0.04119,   0.05482,  -0.00227,  -0.03600,  -0.02303,   0.04444,  -0.06714,   0.00811,  -0.00486,  -0.05935,  -0.06195,   0.00811,  -0.01784,  -0.05416,  -0.04119,   0.10152,   0.05482,  -0.02562,  -0.02562,   0.03925,  -0.00746,   0.04703,   0.02108,  -0.01265,  -0.00227,   0.01589,  -0.02043,   0.00552,  -0.04119,  -0.02822,   0.05222,  -0.05416,   0.04184,  -0.02043,   0.00033,  -0.02562,   0.06779,  -0.11903,   0.05482,   0.03146,  -0.02303,  -0.02043,   0.02627,   0.07038
  -0.01005,  -0.02303,  -0.02303,  -0.06714,   0.00292,  -0.01524,   0.00033,  -0.04638,   0.04703,  -0.01784,   0.00811,   0.13006,  -0.01784,  -0.04897,   0.03406,   0.01589,   0.03665,  -0.02822,  -0.01524,  -0.01784,   0.01071,   0.00552,   0.01849,  -0.00486,  -0.03600,  -0.01265,  -0.02562,   0.03146,   0.05741,  -0.02303,   0.00811,  -0.04638,   0.05741,  -0.01784,   0.07817,  -0.06973,   0.01849,  -0.07233,   0.09374,   0.03925,  -0.00486,  -0.02043,  -0.06714,   0.01589,  -0.02043,   0.04703,  -0.04638,   0.04444,   0.01589,  -0.01784,   0.05741,   0.02108,   0.02887,  -0.03341,   0.02108,   0.01071,  -0.00746,  -0.05157,  -0.03600,   0.07038,   0.05741,  -0.05416,  -0.03860,   0.02108
  -0.02822,  -0.00486,   0.02108,  -0.00486,  -0.02822,   0.01071,  -0.05157,   0.00552,  -0.06454,   0.04184,   0.00552,  -0.04638,   0.04184,   0.01071,  -0.01005,  -0.03081,   0.05741,   0.03406,   0.00292,  -0.04119,  -0.01784,   0.05482,  -0.03081,  -0.06454,   0.02887,  -0.01784,   0.00552,  -0.05676,   0.01330,   0.03665,   0.06260,   0.00292,   0.01589,  -0.04638,   0.03665,  -0.00227,  -0.06195,   0.04444,   0.04703,  -0.05676,   0.01330,  -0.02562,  -0.05157,  -0.03081,  -0.00746,  -0.05676,  -0.01524,   0.01071,   0.03665,  -0.00746,  -0.03341,  -0.00486,   0.06520,   0.03406,  -0.03600,   0.04444,   0.06779,   0.02368,   0.02108,  -0.02303,  -0.02043,   0.01849,   0.10931,  -0.03341
   0.02368,  -0.02562,   0.02887,   0.07038,   0.01071,   0.04444,  -0.02562,   0.00033,  -0.04897,  -0.02822,  -0.09828,  -0.02303,   0.07298,   0.03146,   0.03665,   0.01330,  -0.06454,  -0.00746,  -0.03341,  -0.02043,  -0.04379,   0.01849,  -0.00746,   0.00033,  -0.03081,  -0.04638,  -0.04897,  -0.00746,   0.04444,   0.05741,  -0.01524,  -0.06195,  -0.01265,   0.04184,   0.01849,  -0.01524,  -0.00227,  -0.00486,  -0.02822,   0.03665,   0.02108,   0.01589,  -0.05676,   0.01071,  -0.00486,   0.00552,  -0.04119,   0.04444,   0.01330,   0.00292,  -0.10087,  -0.00746,  -0.03860,   0.02627,  -0.00746,   0.00033,   0.01849,   0.02887,  -0.01005,  -0.04119,   0.02108,  -0.04897,   0.10671,  -0.00227
  -0.01005,  -0.01005,  -0.05676,  -0.05676,   0.00552,  -0.02562,  -0.04638,  -0.00486,   0.05741,  -0.07492,  -0.11644,  -0.03600,  -0.14758,  -0.00746,  -0.09828,   0.03146,  -0.10087,  -0.04379,   0.03665,  -0.01784,   0.02887,   0.01849,  -0.04897,   0.02627,   0.03665,   0.02887,   0.04184,   0.02887,   0.00811,  -0.03341,  -0.04638,  -0.03081,  -0.04119,   0.02368,   0.01071,   0.01330,   0.03925,   0.01330,  -0.03600,   0.00292,   0.04184,   0.00033,   0.09633,  -0.01005,   0.02108,   0.04444,   0.01071,   0.02368,  -0.02303,   0.02108,   0.12487,   0.01071,   0.06001,   0.08076,  -0.01524,  -0.03600,  -0.07233,  -0.03860,  -0.01784,   0.00552,   0.04444,  -0.00486,  -0.11644,  -0.00486
  -0.03860,   0.00292,  -0.05157,   0.09114,   0.02627,   0.01589,  -0.01524,   0.02368,  -0.02043,  -0.00486,   0.00033,  -0.01005,   0.01849,  -0.03341,  -0.05935,   0.03665,  -0.05157,  -0.01784,   0.04184,   0.04184,   0.02108,   0.04184,   0.03925,  -0.02822,  -0.03341,   0.03925,  -0.04119,  -0.03081,   0.01071,  -0.00227,  -0.02822,   0.01589,   0.04444,   0.02627,   0.04184,   0.10671,   0.02368,   0.01071,  -0.03860,   0.02108,   0.06001,   0.10412,   0.00552,  -0.00227,  -0.04119,   0.08076,   0.02368,  -0.03860,   0.04184,   0.03665,   0.02887,   0.03406,  -0.08530,   0.03925,   0.09114,   0.06001,  -0.02562,  -0.04119,  -0.05676,   0.02627,  -0.05157,   0.05222,   0.01589,   0.03406
  -0.03600,  -0.03081,  -0.03341,   0.09374,   0.00292,  -0.06195,  -0.01005,   0.01071,   0.03406,  -0.10346,  -0.00486,   0.03925,   0.03406,  -0.00486,  -0.03600,  -0.02303,  -0.04119,   0.00552,  -0.01005,   0.04703,   0.02368,  -0.04119,  -0.00486,   0.01330,  -0.02303,   0.01849,  -0.07492,   0.08855,  -0.03600,   0.07038,  -0.04119,  -0.00746,   0.10152,   0.01071,  -0.00227,   0.01589,   0.09114,   0.04184,   0.01330,  -0.03600,   0.06001,   0.01330,   0.03925,   0.03146,  -0.02303,   0.08336,   0.02627,   0.02887,  -0.03341,   0.01330,   0.09893,  -0.02303,  -0.12682,   0.00552,  -0.01265,   0.01589,   0.02108,  -0.00227,  -0.05157,  -0.00227,  -0.03600,   0.03406,  -0.00746,  -0.00227
   0.00292,  -0.00227,  -0.00227,   0.06779,   0.00552,   0.00811,  -0.05416,  -0.00746,   0.09114,  -0.03081,   0.03406,   0.06520,   0.05222,  -0.04119,  -0.02043,  -0.00746,  -0.06195,   0.00033,  -0.03341,   0.06779,  -0.02303,  -0.04119,  -0.04379,   0.04963,   0.00811,  -0.00227,   0.00033,   0.04963,  -0.04638,   0.03146,  -0.04638,  -0.01005,   0.04963,   0.01071,  -0.01524,  -0.00227,   0.07817,  -0.02822,  -0.01524,   0.07298,   0.02368,   0.05482,  -0.02562,   0.02887,   0.02368,   0.07817,   0.01589,   0.02887,  -0.01784,  -0.05157,   0.00811,  -0.04119,  -0.06973,   0.01589,   0.02108,   0.01849,   0.03146,   0.02627,  -0.02043,  -0.00746,   0.04184,   0.02368,   0.03665,  -0.03341
   0.01849,   0.00811,  -0.05416,  -0.06714,   0.00552,  -0.03600,   0.02368,  -0.04119,   0.00811,  -0.11125,  -0.00227,   0.01589,  -0.07233,   0.01589,  -0.09049,   0.03665,  -0.00486,  -0.06195,   0.02627,   0.01849,  -0.01265,  -0.04638,  -0.04897,   0.05222,   0.01589,   0.03665,  -0.02043,  -0.00486,   0.02108,   0.08336,  -0.03600,  -0.00227,  -0.00227,   0.00292,  -0.07492,   0.01071,  -0.02822,   0.05741,  -0.01265,   0.06001,  -0.00227,   0.05222,  -0.07752,   0.03146,   0.00552,  -0.01784,   0.00552,  -0.01784,  -0.00486,  -0.00486,   0.09633,  -0.01005,  -0.06195,  -0.04119,   0.01849,   0.06260,   0.00811,   0.01330,   0.01849,   0.02368,  -0.00227,   0.03665,  -0.11384,   0.03665
  -0.04379,   0.02108,  -0.04119,   0.00552,   0.03665,   0.03406,  -0.01524,   0.00552,   0.04703,   0.06260,  -0.08011,  -0.06454,   0.03925,   0.02887,   0.08076,  -0.04119,  -0.00486,   0.00292,   0.04444,   0.09633,  -0.04379,   0.01071,  -0.01265,   0.03925,   0.01849,  -0.02303,  -0.05676,  -0.00746,   0.04444,   0.02887,   0.00292,   0.00552,  -0.05935,   0.02627,   0.00811,  -0.00746,  -0.03600,   0.07817,   0.07298,  -0.03081,   0.13525,   0.01589,   0.02368,  -0.05416,  -0.04897,   0.05741,   0.04184,  -0.00227,  -0.00486,   0.03925,  -0.04119,  -0.04897,   0.07038,   0.02627,   0.01849,  -0.05935,   0.03146,   0.01589,  -0.02303,  -0.05935,  -0.04119,  -0.06714,   0.02368,  -0.07233
   0.01589,  -0.03600,  -0.03600,   0.02887,  -0.01524,   0.06779,  -0.02043,   0.01849,   0.07298,   0.09114,  -0.03341,  -0.01524,  -0.07233,  -0.02043,   0.07817,  -0.03860,   0.03406,   0.00033,   0.09114,   0.13785,   0.01849,   0.04184,   0.00811,   0.06001,  -0.05416,   0.02368,  -0.05157,  -0.09049,  -0.02822,   0.00292,   0.09893,  -0.02562,  -0.02822,   0.04184,   0.02368,  -0.05676,  -0.04119,   0.07038,   0.03146,  -0.00486,   0.07817,   0.01849,   0.01330,   0.00552,   0.02108,  -0.00227,   0.00292,  -0.04897,   0.00033,   0.00811,  -0.05157,   0.00552,   0.05741,   0.00033,  -0.07752,   0.01849,   0.04184,   0.03406,   0.01589,   0.00033,   0.01330,  -0.03341,   0.00552,  -0.09828
  -0.00486,  -0.01524,   0.02108,   0.01849,  -0.02822,   0.09893,  -0.04897,  -0.02822,  -0.03341,   0.04444,  -0.03341,  -0.09049,  -0.01784,   0.00552,  -0.06454,  -0.03860,   0.04963,  -0.02043,   0.03665,   0.05482,  -0.02822,   0.08855,  -0.01524,   0.03665,   0.00292,   0.02368,   0.03925,   0.02108,  -0.01784,  -0.03081,   0.01071,  -0.02043,  -0.01524,  -0.00486,   0.07298,  -0.00746,   0.03665,   0.09633,   0.03665,   0.06001,   0.03406,  -0.00746,   0.03406,   0.00292,  -0.04897,   0.03146,  -0.01784,  -0.00746,  -0.01784,   0.04184,   0.01849,   0.00811,   0.01589,   0.04703,  -0.06454,  -0.03341,   0.00033,   0.02627,  -0.03860,   0.07817,   0.02887,  -0.04897,   0.00811,  -0.02822
  -0.03600,  -0.01784,  -0.04897,   0.04184,  -0.02043,   0.04184,   0.02627,  -0.03600,  -0.01265,  -0.00746,   0.00811,  -0.05676,  -0.03600,   0.03146,  -0.04119,   0.01071,  -0.01524,  -0.02043,   0.07557,  -0.02822,   0.04444,   0.07038,   0.01849,   0.03665,  -0.02562,  -0.03860,   0.07038,   0.02627,   0.00292,  -0.01005,  -0.04119,  -0.00486,  -0.01524,  -0.05157,  -0.00486,  -0.04119,   0.02108,   0.03406,  -0.02043,   0.07298,  -0.01784,  -0.00746,   0.02887,   0.01849,  -0.03081,  -0.01265,   0.01330,   0.04184,   0.00811,  -0.04379,  -0.00227,  -0.02562,   0.07298,   0.06260,  -0.01524,   0.00033,   0.02887,   0.03665,  -0.03600,   0.03665,  -0.00227,   0.02108,  -0.05676,  -0.00746
   0.02368,  -0.04897,   0.02368,   0.03665,  -0.03341,  -0.02043,  -0.02043,  -0.03341,   0.04184,   0.07817,  -0.00227,  -0.00227,  -0.02303,  -0.02562,   0.00033,  -0.04638,  -0.03081,  -0.04119,  -0.00746,   0.04703,  -0.01005,  -0.04638,   0.00033,   0.09114,   0.04184,   0.03665,  -0.01524,   0.03665,   0.03146,   0.06520,   0.00033,   0.03665,  -0.01265,   0.04184,  -0.00486,   0.02108,  -0.08271,   0.00033,   0.02887,   0.00033,   0.05222,  -0.04638,   0.02368,   0.01589,  -0.00227,  -0.01005,   0.00811,  -0.02822,   0.00552,  -0.01524,   0.01330,  -0.04379,   0.03406,  -0.01524,  -0.05157,  -0.06714,   0.04184,   0.05741,   0.04444,  -0.04897,  -0.05157,   0.04444,  -0.08011,  -0.02562
  -0.03341,  -0.05157,   0.01071,  -0.01524,  -0.04897,   0.07038,   0.01849,   0.01330,  -0.00486,   0.04444,  -0.07752,  -0.02562,   0.01330,  -0.01784,   0.09114,   0.02627,   0.02887,  -0.05676,   0.08336,   0.05741,   0.03146,   0.04444,  -0.04119,   0.00033,  -0.03600,   0.02887,  -0.03860,   0.00033,   0.00552,  -0.03600,  -0.02043,  -0.03081,  -0.09049,   0.01071,   0.03406,   0.01849,  -0.06973,   0.02627,  -0.01265,  -0.08011,   0.06520,  -0.00746,   0.02887,  -0.03341,  -0.00227,  -0.03341,  -0.05157,  -0.04119,  -0.03081,   0.01330,  -0.00227,  -0.01005,   0.02887,  -0.03341,  -0.02303,   0.02627,   0.02368,  -0.02562,  -0.09049,   0.01330,   0.09114,  -0.05676,   0.00033,   0.01849
  -0.05157,  -0.03600,  -0.01784,  -0.09828,   0.02627,   0.11450,  -0.04897,  -0.01784,   0.03665,   0.02368,  -0.01265,  -0.04119,   0.02368,  -0.03860,   0.03146,   0.01589,   0.06520,  -0.03341,   0.07817,   0.07038,   0.01589,   0.06001,   0.00292,  -0.01524,   0.00552,  -0.04379,   0.01849,  -0.03081,   0.00811,  -0.08271,   0.08336,   0.00033,  -0.05935,  -0.02822,  -0.01524,   0.08855,  -0.01005,  -0.03860,   0.05741,  -0.08271,   0.03146,  -0.08530,  -0.10087,  -0.01784,  -0.00746,  -0.03600,   0.03406,   0.01849,   0.03146,  -0.02043,   0.07038,  -0.00486,   0.07817,   0.02887,   0.03146,  -0.04638,   0.09893,  -0.04897,   0.00811,  -0.03081,   0.06260,  -0.02562,   0.04444,   0.05482
  -0.02043,  -0.03860,   0.00033,  -0.03600,  -0.01265,   0.00552,   0.04184,   0.00811,   0.01330,  -0.00486,   0.02627,   0.04703,   0.09114,   0.01849,   0.01849,   0.02887,  -0.00486,  -0.03600,   0.08336,   0.11190,  -0.01005,   0.01071,  -0.02043,  -0.02303,   0.01849,   0.04963,  -0.03341,  -0.02562,  -0.04638,  -0.02822,  -0.01524,   0.03146,  -0.06973,   0.00811,  -0.03081,   0.05222,  -0.03081,   0.01071,  -0.01524,  -0.08271,  -0.01005,  -0.06454,  -0.08011,   0.02627,   0.02368,   0.10931,  -0.05157,   0.00033,   0.01071,  -0.01784,   0.05482,   0.01330,   0.04444,  -0.09568,   0.01589,   0.05222,  -0.03600,  -0.02043,  -0.00486,   0.06520,  -0.03341,   0.04703,   0.10152,   0.02368
   0.00811,  -0.00746,   0.01071,  -0.02043,  -0.04379,  -0.01265,   0.01849,  -0.04379,   0.01589,  -0.03081,   0.03925,   0.08595,  -0.03860,  -0.04897,   0.04963,  -0.04379,   0.02368,  -0.01265,   0.02368,   0.05222,   0.00292,   0.01849,   0.00552,   0.03406,  -0.01784,  -0.02562,  -0.04119,  -0.04119,   0.02627,  -0.00227,  -0.00486,  -0.03341,   0.04963,  -0.03341,   0.02887,  -0.05935,  -0.00486,  -0.03341,   0.00292,   0.02108,   0.01849,   0.00811,  -0.12422,  -0.03860,  -0.02303,   0.05222,  -0.04897,   0.01330,   0.01330,  -0.03600,   0.02887,  -0.04119,  -0.01784,   0.02108,   0.02627,   0.02887,  -0.01784,   0.03406,  -0.01524,  -0.01265,   0.00033,   0.00292,   0.10671,   0.02108
   0.01071,   0.02108,  -0.01524,   0.04963,  -0.00486,   0.00033,  -0.04379,   0.02108,  -0.01265,   0.02627,   0.00292,  -0.00486,  -0.04379,  -0.03600,  -0.02303,  -0.02043,  -0.03341,   0.00033,   0.07817,   0.00033,   0.01330,   0.06779,  -0.02303,  -0.02043,  -0.03600,  -0.02043,   0.01071,   0.01330,   0.00292,  -0.04897,  -0.00486,  -0.02043,   0.04184,  -0.03081,  -0.00486,   0.03406,  -0.05416,  -0.00486,  -0.02562,   0.01071,   0.03146,   0.00292,   0.02627,   0.01589,   0.04184,   0.01849,   0.01330,  -0.00486,   0.02627,  -0.04379,   0.03146,  -0.03860,   0.03146,   0.04184,   0.00033,   0.01071,   0.07817,  -0.00227,  -0.04897,  -0.02822,  -0.04119,   0.01330,   0.11190,   0.05222
  -0.00746,   0.02627,  -0.00486,  -0.01265,   0.02368,  -0.04897,  -0.02043,  -0.01005,   0.05482,  -0.14239,  -0.10865,   0.07817,  -0.15536,  -0.00486,  -0.04638,   0.00292,  -0.03341,  -0.00227,   0.19234,   0.25461,  -0.03600,  -0.05935,  -0.02562,   0.07557,  -0.02303,  -0.02562,  -0.02822,  -0.05157,  -0.08790,   0.04444,  -0.01265,  -0.03341,   0.03665,  -0.02822,   0.18196,  -0.14239,  -0.02303,   0.14823,  -0.06714,  -0.01524,   0.02627,   0.02627,   0.00552,   0.02887,  -0.03341,   0.09374,  -0.02043,  -0.05416,  -0.02303,   0.03925,   0.20531,  -0.00746,  -0.11384,  -0.04119,   0.06520,  -0.00227,  -0.08011,   0.04444,   0.02108,   0.12487,  -0.14239,   0.04444,  -0.06973,  -0.06973
  -0.04897,  -0.02303,  -0.02822,  -0.02822,   0.00552,   0.03146,   0.02627,  -0.00746,   0.03406,  -0.02303,  -0.01265,  -0.04638,   0.00033,   0.01849,   0.07038,   0.04184,   0.09633,   0.01071,   0.05482,  -0.09309,  -0.04638,   0.00552,  -0.02562,   0.04963,   0.03406,   0.01849,   0.07038,  -0.01005,  -0.03860,  -0.06714,   0.07557,  -0.00486,   0.02627,  -0.04119,   0.01071,  -0.06973,  -0.06454,  -0.03341,   0.00552,  -0.03341,   0.04703,  -0.02822,   0.06001,   0.03146,   0.01589,  -0.05935,   0.01071,   0.02108,   0.01071,   0.00033,   0.02627,   0.02368,   0.03406,   0.09633,   0.08076,  -0.05157,   0.13006,  -0.02562,  -0.06973,   0.01071,  -0.01784,   0.08595,  -0.03081,   0.16120
  -0.01524,   0.03925,   0.00552,   0.04444,  -0.04379,  -0.06714,   0.01071,  -0.03860,   0.02108,   0.00811,   0.02887,   0.00552,  -0.02303,   0.01589,   0.01849,   0.03146,  -0.01265,  -0.02562,  -0.07233,  -0.03860,   0.01071,  -0.01005,   0.01849,  -0.05157,  -0.01265,   0.03665,  -0.07233,   0.01589,  -0.11384,  -0.10346,   0.01071,   0.03146,   0.07298,   0.02887,  -0.07233,   0.04703,   0.03665,  -0.13720,  -0.08011,   0.07298,  -0.00486,   0.08855,  -0.09828,   0.00033,  -0.01005,   0.03146,   0.01849,  -0.00227,  -0.05157,  -0.02822,   0.17158,  -0.03341,  -0.01005,  -0.01784,   0.04703,   0.02887,   0.09893,  -0.03081,  -0.00746,   0.01849,  -0.02043,   0.09633,   0.06779,   0.10931
  -0.04638,  -0.02822,  -0.06195,  -0.01265,   0.01071,   0.01589,   0.01330,  -0.02043,  -0.04379,  -0.00486,   0.00552,   0.04703,  -0.01524,   0.02368,   0.06001,  -0.04119,   0.07038,  -0.02822,   0.07817,   0.06260,  -0.04119,   0.03925,   0.03406,  -0.03341,  -0.01524,   0.00811,   0.00292,   0.02368,   0.02368,   0.04184,   0.09114,   0.00292,  -0.02562,   0.01330,  -0.03081,  -0.13979,   0.03406,   0.01071,   0.02108,  -0.01265,   0.04963,  -0.06454,  -0.09049,  -0.03600,  -0.01784,  -0.02043,   0.00292,  -0.00227,  -0.05157,  -0.04379,  -0.05676,  -0.02043,  -0.02043,  -0.00486,   0.00292,   0.07817,  -0.02822,   0.02627,   0.03146,   0.07817,  -0.01265,  -0.03081,   0.01071,   0.01849
   0.03406,  -0.05157,   0.01330,  -0.04119,  -0.02822,  -0.03600,  -0.02822,  -0.03341,   0.00552,   0.04963,  -0.00227,  -0.12422,  -0.05935,   0.00033,   0.09114,   0.01589,  -0.01524,  -0.02303,   0.04184,   0.04444,   0.03146,   0.06260,   0.01071,  -0.03341,   0.02887,  -0.01524,   0.01589,  -0.10346,  -0.12422,  -0.01524,   0.02108,  -0.01524,  -0.00746,   0.01589,   0.04444,  -0.02303,  -0.09828,   0.01071,  -0.07492,  -0.04119,   0.01589,   0.04703,  -0.01005,  -0.04897,   0.04184,   0.00811,  -0.02303,  -0.03860,  -0.00227,  -0.02562,   0.01071,  -0.04119,   0.01849,  -0.00227,   0.05222,   0.02887,   0.05222,   0.13525,   0.04184,  -0.04119,   0.07298,   0.04184,   0.18455,  -0.05157
   0.03665,   0.01849,  -0.03860,   0.03925,  -0.03081,  -0.07233,   0.00033,  -0.04638,   0.08336,  -0.10087,  -0.08790,   0.06779,  -0.01265,   0.02368,  -0.08271,  -0.04119,   0.00292,  -0.02043,   0.12747,   0.14044,  -0.04638,  -0.04638,  -0.01524,   0.11709,  -0.03341,  -0.02822,   0.05741,  -0.06973,  -0.11384,   0.14044,   0.04963,   0.01071,   0.15082,  -0.03600,   0.03146,  -0.06973,   0.01071,   0.12228,  -0.03600,  -0.01524,  -0.02562,   0.04184,  -0.05157,  -0.04119,   0.04444,   0.00552,  -0.00486,  -0.04897,  -0.04897,  -0.04897,   0.13006,  -0.00227,  -0.15017,  -0.02822,   0.06779,  -0.07492,   0.01330,   0.05222,   0.03146,  -0.02303,  -0.06195,   0.13266,  -0.15017,  -0.07233
   0.01849,  -0.02043,   0.01071,   0.11450,   0.01589,  -0.05935,  -0.05416,  -0.05157,  -0.01524,   0.15601,   0.03146,  -0.10087,   0.08076,   0.03406,   0.02368,  -0.02562,  -0.01784,  -0.01784,  -0.11644,  -0.13201,   0.00292,  -0.00486,  -0.03600,   0.10152,   0.02627,   0.03146,   0.01071,  -0.04638,   0.01071,   0.05482,   0.03925,  -0.00486,   0.07298,   0.00811,  -0.14498,   0.04963,  -0.07752,   0.02627,  -0.06454,  -0.01265,   0.05741,  -0.04638,  -0.01784,  -0.00746,   0.01330,  -0.09309,   0.00033,   0.00033,  -0.00746,   0.00811,  -0.14758,  -0.01265,  -0.01005,   0.04184,  -0.03081,  -0.05935,   0.10931,   0.16639,   0.02627,  -0.28250,  -0.09309,   0.03146,  -0.00486,  -0.00227
   0.03925,   0.01589,   0.01589,   0.03406,  -0.03860,  -0.00486,   0.00811,  -0.02043,  -0.01005,   0.15082,   0.04963,   0.02108,   0.01849,   0.02368,  -0.02303,  -0.00486,  -0.00227,   0.00552,  -0.05157,  -0.04897,   0.04963,   0.01849,  -0.04638,   0.00552,  -0.05157,  -0.01005,  -0.05676,   0.01330,  -0.00227,  -0.07233,   0.01330,   0.01849,  -0.03081,  -0.00227,  -0.13720,   0.05741,   0.07557,  -0.07233,  -0.07233,   0.05222,   0.03406,   0.07038,   0.02627,   0.00552,   0.03406,  -0.06714,   0.01849,   0.01071,  -0.05416,   0.04184,   0.01589,  -0.03600,   0.07038,  -0.00486,  -0.01005,  -0.01005,   0.11709,  -0.05157,   0.04703,  -0.06454,   0.02627,   0.01330,  -0.10346,   0.09633
  -0.04897,  -0.02043,  -0.05157,  -0.09828,   0.01071,   0.02368,  -0.04379,   0.00033,   0.05222,  -0.01265,   0.02108,   0.01071,  -0.07752,   0.00033,   0.00033,  -0.00486,   0.03665,   0.01589,   0.01330,   0.03925,  -0.01265,  -0.04379,  -0.00227,   0.03406,   0.00811,  -0.04119,   0.03406,  -0.00227,   0.01330,  -0.00486,  -0.02303,  -0.04897,   0.06520,   0.03925,   0.02627,  -0.07752,   0.00033,   0.03665,   0.03406,  -0.04638,   0.04963,  -0.04638,  -0.01005,  -0.05416,   0.02108,   0.04184,  -0.01005,  -0.04638,  -0.04897,  -0.00746,   0.03925,  -0.00227,   0.02368,  -0.02822,   0.00811,   0.01589,  -0.01265,   0.02887,   0.01071,   0.02887,   0.08595,   0.01330,  -0.06454,   0.07038
   0.00811,   0.00552,  -0.04897,  -0.01784,  -0.04379,   0.03406,  -0.00746,  -0.04897,   0.03406,   0.06001,   0.02627,  -0.04119,  -0.06714,  -0.01265,   0.00552,  -0.02562,  -0.01265,   0.02887,   0.11709,  -0.02562,   0.03146,   0.04444,  -0.04638,  -0.00227,   0.00811,   0.02368,  -0.01005,  -0.09049,  -0.06195,   0.05482,   0.10152,   0.00292,  -0.05157,  -0.04638,  -0.01524,   0.02887,  -0.03081,   0.06260,   0.00292,  -0.00227,  -0.02043,  -0.00746,   0.01071,  -0.01784,  -0.04897,  -0.02562,  -0.03600,  -0.00227,  -0.04897,  -0.04379,   0.04703,  -0.05416,   0.09374,  -0.00227,   0.02108,   0.06520,   0.04703,   0.05482,   0.01849,   0.00552,   0.00292,   0.03665,   0.00033,  -0.06454
   0.00552,  -0.03081,   0.00811,   0.09893,  -0.05416,  -0.12941,   0.00552,   0.02887,   0.07557,  -0.03081,  -0.02562,   0.01849,   0.02887,  -0.02822,  -0.05416,  -0.02043,  -0.00486,   0.04444,  -0.08271,   0.00292,   0.04184,  -0.03860,  -0.05676,   0.16639,  -0.05157,   0.00811,   0.05222,  -0.01005,  -0.03341,   0.25980,  -0.03600,  -0.00486,   0.10152,   0.01589,   0.05222,  -0.02303,  -0.04897,   0.09893,  -0.05416,   0.07557,   0.07298,   0.04184,  -0.08530,  -0.03081,   0.04703,  -0.01005,   0.01589,  -0.03860,  -0.00486,   0.03146,  -0.13201,   0.00033,  -0.04638,  -0.05935,  -0.03600,   0.09114,  -0.03600,   0.18455,  -0.01265,  -0.13460,  -0.01784,   0.03146,   0.01589,  -0.05416
  -0.02303,  -0.04119,  -0.00227,  -0.07752,  -0.03600,  -0.02822,  -0.05416,  -0.04638,   0.13525,  -0.06195,  -0.01265,   0.05222,  -0.08011,  -0.01524,  -0.11384,   0.02368,  -0.04119,   0.03146,  -0.07752,   0.00811,  -0.02822,  -0.06973,   0.02368,   0.08336,   0.02887,  -0.02043,   0.09374,   0.13006,   0.08855,   0.08855,  -0.01005,   0.00811,  -0.03860,  -0.01005,  -0.02822,   0.00292,   0.06779,   0.01330,  -0.13979,   0.01330,   0.02368,   0.00292,   0.05482,  -0.02822,   0.01849,   0.03925,  -0.04379,   0.02887,   0.04184,  -0.05416,  -0.00227,   0.04444,   0.07038,   0.07038,   0.01589,  -0.03600,  -0.02562,  -0.03081,  -0.01265,  -0.05157,   0.11450,  -0.01524,  -0.12682,  -0.02043
  -0.03600,  -0.03081,   0.00552,  -0.13979,  -0.02303,   0.01589,  -0.00746,   0.03406,   0.02627,   0.07817,   0.10671,  -0.01524,  -0.03341,   0.00811,   0.08336,   0.03146,   0.04963,   0.01071,   0.00033,  -0.04638,   0.00811,   0.03925,   0.01330,  -0.05935,   0.03665,  -0.03860,  -0.03600,   0.06001,   0.13006,  -0.08790,  -0.03341,  -0.01784,  -0.03081,   0.00811,  -0.03860,   0.09114,   0.00292,  -0.09568,   0.01330,  -0.07752,   0.02627,  -0.10346,   0.02627,   0.02108,  -0.03081,  -0.06195,   0.02108,   0.02368,   0.00033,  -0.01524,   0.03406,   0.03406,   0.15082,   0.05482,   0.07298,  -0.01784,   0.02887,  -0.01784,  -0.03341,   0.07038,   0.07038,  -0.05157,  -0.08011,   0.11190
   0.02887,  -0.02043,   0.01589,  -0.01524,  -0.02303,   0.06779,  -0.00486,   0.02887,  -0.03081,   0.01330,   0.01849,  -0.09828,  -0.01005,   0.00292,   0.09893,  -0.05416,  -0.03341,   0.00292,   0.07817,  -0.02303,   0.04184,   0.08076,   0.01849,  -0.00746,  -0.04119,   0.01330,   0.03146,  -0.04119,  -0.03341,  -0.07752,  -0.03081,   0.03406,  -0.01005,   0.03925,   0.02108,  -0.07233,  -0.07233,   0.02887,   0.06260,  -0.00486,   0.06260,  -0.03081,   0.03925,   0.03406,  -0.02043,  -0.03860,   0.01071,   0.01330,   0.02108,  -0.04638,   0.00033,   0.01330,   0.07038,   0.03925,   0.05222,   0.02887,   0.06260,   0.01071,  -0.00746,   0.03925,  -0.02562,  -0.04119,   0.04963,   0.01589
  -0.05157,  -0.04379,   0.00033,   0.00033,  -0.05157,   0.02627,   0.03146,  -0.01005,  -0.06454,  -0.01265,   0.10671,  -0.00227,   0.04184,   0.00811,  -0.03081,  -0.03600,   0.03406,  -0.00486,   0.11450,   0.03146,  -0.01265,   0.03146,  -0.01005,  -0.07492,   0.00552,   0.02108,  -0.00486,  -0.03081,  -0.03341,   0.01071,   0.05482,   0.03925,   0.01849,  -0.01524,   0.05741,   0.01071,  -0.05935,   0.01071,   0.06520,   0.05222,  -0.00746,   0.11450,   0.04184,  -0.00486,   0.03925,  -0.03341,  -0.03860,  -0.04638,   0.00292,   0.02108,   0.00811,   0.03406,  -0.02303,  -0.03860,   0.07298,   0.06779,   0.02887,   0.05222,   0.03406,   0.03925,   0.06520,  -0.01524,  -0.04119,   0.03665
   0.02887,   0.03665,  -0.02562,   0.02108,   0.01330,  -0.00746,  -0.03600,   0.02368,   0.01589,  -0.06714,   0.01330,  -0.02562,  -0.03081,   0.02627,  -0.00746,   0.02887,   0.00811,  -0.02562,  -0.01265,   0.07298,  -0.04379,  -0.04638,   0.02368,   0.06520,   0.03925,  -0.03081,   0.00552,  -0.00227,   0.01330,  -0.03600,   0.00292,  -0.00227,  -0.00746,   0.04444,   0.01849,  -0.01265,  -0.02043,   0.06260,  -0.00227,   0.04184,  -0.01524,   0.00292,   0.06260,  -0.05416,  -0.03081,   0.03146,   0.02887,  -0.04897,   0.03925,  -0.02562,   0.00811,  -0.03081,  -0.05416,   0.04184,   0.06260,   0.03406,   0.04184,  -0.04379,  -0.01265,   0.00552,  -0.00486,   0.06260,  -0.00486,   0.00552
   0.01849,   0.02108,   0.01849,   0.06779,  -0.03860,   0.06520,  -0.04638,  -0.03081,  -0.01005,  -0.09309,   0.02627,  -0.02303,  -0.06454,  -0.01524,  -0.07752,  -0.03600,   0.05222,  -0.03341,   0.06520,   0.07298,   0.03665,  -0.00746,  -0.04119,  -0.00746,  -0.04638,  -0.04638,   0.02627,   0.04444,   0.01071,   0.01071,   0.04703,  -0.05935,   0.02368,  -0.03341,   0.01330,  -0.07752,   0.05482,   0.04184,   0.03146,   0.03146,  -0.07233,   0.04444,   0.07557,   0.00033,   0.04184,  -0.04638,   0.00292,  -0.04119,   0.03925,  -0.04119,   0.02887,   0.00811,  -0.00227,   0.06520,  -0.05935,  -0.06195,  -0.01784,   0.01071,  -0.03860,   0.04444,  -0.10087,  -0.01524,  -0.08011,  -0.09828
  -0.02562,   0.02368,   0.01071,   0.08336,  -0.01784,  -0.01265,  -0.01005,   0.00292,  -0.09828,  -0.11125,   0.04963,   0.06260,   0.04963,  -0.02043,  -0.14758,  -0.02822,   0.10671,   0.01589,   0.11190,   0.02627,   0.01589,  -0.03081,  -0.00746,  -0.09309,  -0.04638,  -0.05157,   0.05222,  -0.00486,   0.06779,   0.09893,   0.02368,   0.03406,   0.10671,   0.02108,   0.06520,  -0.03081,   0.11709,   0.04184,   0.08855,   0.07298,  -0.07492,   0.08855,   0.05482,   0.04184,   0.00811,  -0.01784,  -0.04897,  -0.03600,   0.02887,  -0.03341,   0.02887,  -0.02043,  -0.13720,  -0.03341,   0.01330,   0.03406,  -0.00486,  -0.09828,  -0.03860,   0.03925,  -0.10865,   0.04444,  -0.07233,  -0.04638
   0.01071,   0.03665,   0.00292,   0.06260,   0.01589,  -0.13979,   0.02108,  -0.05157,   0.01071,  -0.07233,   0.01849,   0.06520,   0.09374,  -0.00746,  -0.03341,   0.00292,   0.05222,  -0.01265,   0.05741,   0.12747,   0.00292,  -0.12163,  -0.01784,   0.03146,   0.01330,   0.01071,  -0.04897,  -0.02303,   0.04703,   0.17936,   0.00033,   0.01071,   0.05482,  -0.01265,   0.00811,  -0.07492,  -0.02303,   0.07298,   0.08336,  -0.03860,   0.00033,  -0.02822,  -0.04119,  -0.01005,   0.00811,   0.01071,  -0.03081,  -0.01524,   0.00033,  -0.02303,   0.03925,   0.04963,  -0.14758,  -0.01265,   0.11450,  -0.03081,   0.02368,   0.01330,   0.04963,  -0.01005,  -0.17352,   0.05482,  -0.12163,   0.03146
  -0.04379,   0.01589,   0.02368,  -0.01005,   0.01330,  -0.08271,   0.01071,  -0.00486,  -0.00227,  -0.00486,   0.02887,   0.15601,   0.04963,  -0.03860,  -0.06714,   0.00811,   0.09893,  -0.05157,  -0.03860,   0.00811,   0.03665,  -0.15017,  -0.04638,   0.02627,   0.01589,  -0.03860,  -0.08530,   0.08336,   0.00033,   0.00552,   0.17418,  -0.01265,   0.07557,  -0.00227,  -0.05935,  -0.00746,   0.03146,   0.00033,   0.00033,   0.03665,  -0.01005,  -0.13201,  -0.05676,   0.01071,   0.01330,   0.00552,  -0.04897,  -0.05157,   0.01330,  -0.02822,   0.10931,  -0.02303,  -0.12422,  -0.00227,   0.12487,  -0.09828,   0.09893,  -0.11644,  -0.02043,  -0.02043,  -0.10346,   0.10931,  -0.01265,   0.09633
   0.01849,   0.00292,   0.02368,   0.02368,  -0.01524,   0.13006,  -0.00746,  -0.03341,  -0.04638,  -0.06454,  -0.03081,  -0.04119,  -0.11903,  -0.04638,  -0.04897,  -0.01784,  -0.09568,  -0.00486,   0.02627,   0.11709,  -0.04119,   0.08076,  -0.03600,  -0.04119,   0.01589,  -0.02303,  -0.00227,   0.05482,  -0.01265,  -0.00227,  -0.02303,   0.00033,  -0.01005,   0.01071,   0.12228,  -0.05416,   0.03406,   0.04963,   0.02368,  -0.01265,  -0.05157,   0.10671,   0.13266,  -0.01784,  -0.04638,   0.06520,   0.00552,  -0.04897,  -0.01005,  -0.04638,  -0.03341,  -0.01784,  -0.02043,   0.06779,  -0.08790,   0.03925,  -0.10865,   0.07557,  -0.02562,   0.12747,   0.01071,  -0.06714,   0.00811,  -0.11903
   0.01849,  -0.02303,   0.00033,   0.14044,   0.00292,   0.05741,   0.00552,  -0.03860,  -0.08790,   0.03925,  -0.27731,  -0.12682,  -0.04119,  -0.05935,  -0.07233,  -0.03600,  -0.07492,  -0.05416,   0.10671,   0.05482,  -0.04897,   0.07817,  -0.03081,   0.04703,   0.00811,  -0.01005,   0.04184,  -0.01265,   0.01589,   0.02627,  -0.12163,  -0.01265,  -0.00227,   0.02108,   0.21569,  -0.05157,   0.04963,   0.18715,   0.02887,  -0.03341,   0.14044,   0.12747,   0.07817,  -0.01524,  -0.00746,   0.04444,   0.01330,  -0.02562,  -0.04119,   0.01849,  -0.07492,  -0.05935,  -0.12422,   0.00811,  -0.05676,   0.07557,  -0.11903,   0.17418,   0.00033,   0.05222,  -0.05416,  -0.19947,   0.06001,  -0.13979
  -0.00486,  -0.01524,  -0.01005,   0.10152,   0.03665,  -0.04119,   0.03665,   0.02368,  -0.05157,  -0.03600,  -0.25915,  -0.04897,   0.08076,  -0.04897,  -0.02043,   0.04184,  -0.00746,  -0.03860,   0.17158,   0.16639,   0.00292,  -0.02822,  -0.05676,   0.01849,  -0.05157,   0.01849,  -0.03860,  -0.05157,   0.03146,  -0.11384,   0.01330,  -0.04897,   0.05222,  -0.04897,   0.25721,   0.04963,  -0.09049,   0.23645,   0.10931,  -0.14498,   0.15342,   0.01071,   0.14563,  -0.04119,  -0.02303,   0.00552,   0.03665,  -0.04379,  -0.01784,   0.03406,  -0.02303,  -0.03081,  -0.12941,  -0.11644,   0.02627,  -0.09309,   0.03406,   0.07557,   0.01589,   0.09114,  -0.26175,  -0.13201,  -0.11384,  -0.13201
  -0.02043,   0.03146,  -0.01524,   0.10152,  -0.04897,  -0.06973,   0.00552,  -0.02562,  -0.03081,  -0.11644,  -0.01524,   0.02108,   0.16639,  -0.01784,  -0.11903,  -0.05416,   0.16639,   0.01589,   0.13006,   0.14563,  -0.00227,  -0.18131,  -0.03860,  -0.04119,  -0.01524,   0.03146,  -0.04638,   0.02108,   0.02368,   0.06260,   0.08076,  -0.02822,   0.15342,   0.00292,   0.07298,   0.05741,   0.02887,   0.08076,   0.02627,  -0.01005,  -0.09568,  -0.06454,   0.04963,  -0.02303,  -0.00227,   0.02368,   0.01071,  -0.04119,   0.00811,  -0.04638,   0.04703,  -0.00486,  -0.17352,  -0.07233,   0.04444,  -0.05676,   0.02368,  -0.10346,   0.03146,   0.09633,  -0.22282,   0.09633,  -0.12682,   0.00033
   0.01849,  -0.04379,   0.00552,   0.02368,  -0.03081,  -0.06195,   0.01849,   0.00552,  -0.02822,   0.05741,  -0.06714,   0.14044,   0.17158,   0.03925,   0.01071,  -0.03341,   0.23385,   0.01589,  -0.02043,   0.09374,   0.01071,  -0.22023,   0.02627,  -0.02043,  -0.01265,  -0.04119,  -0.10606,   0.04963,   0.03406,   0.01330,   0.23904,  -0.00746,   0.04444,  -0.03341,  -0.09309,   0.04963,   0.01849,  -0.10087,   0.09633,  -0.03600,  -0.02043,  -0.21763,  -0.13979,   0.01849,  -0.02303,  -0.00746,   0.01589,   0.02627,  -0.02562,   0.03925,   0.08336,  -0.03341,  -0.10346,  -0.13979,   0.08595,  -0.10346,   0.03925,  -0.11125,   0.02108,   0.00552,  -0.05157,   0.13785,  -0.03341,   0.03406
  -0.00746,  -0.03081,  -0.05676,  -0.03081,  -0.04379,  -0.03341,  -0.02043,   0.01589,  -0.01784,  -0.03600,  -0.12163,   0.05482,  -0.18390,  -0.02043,  -0.01265,   0.02108,  -0.15277,   0.02627,   0.13785,   0.23645,  -0.04897,  -0.00227,   0.02627,   0.03665,   0.00811,   0.01849,  -0.02562,   0.01330,  -0.00227,   0.02108,  -0.13979,   0.04184,  -0.00746,  -0.01524,   0.25721,  -0.11125,   0.09114,   0.18974,   0.00033,  -0.02562,   0.08595,   0.12747,   0.03665,   0.02368,   0.03665,   0.15601,  -0.01784,  -0.04638,  -0.03341,  -0.02822,   0.11190,  -0.00227,  -0.10087,  -0.07752,  -0.02043,   0.05482,  -0.15536,   0.13006,  -0.01265,   0.11190,   0.05741,  -0.10346,   0.04703,  -0.17352
  -0.02043,  -0.03081,  -0.01005,  -0.04119,  -0.05416,  -0.08011,   0.00292,  -0.02562,  -0.00227,  -0.03081,  -0.26953,  -0.01005,  -0.10346,   0.00033,   0.07038,  -0.02562,  -0.16055,  -0.01265,   0.21569,   0.21569,   0.01849,   0.12228,   0.02887,   0.04703,  -0.02043,   0.01589,  -0.04897,  -0.13460,   0.02108,  -0.09049,  -0.15017,  -0.01524,  -0.02303,  -0.01005,   0.34024,   0.01330,  -0.02043,   0.17158,   0.12228,  -0.17093,   0.16639,   0.13785,  -0.02822,   0.04184,  -0.03600,   0.15342,  -0.00227,   0.03925,   0.00292,   0.00811,   0.01330,  -0.00746,  -0.14758,  -0.16314,   0.07817,   0.13785,  -0.11384,   0.15342,  -0.04379,   0.16380,  -0.06195,  -0.18650,   0.10931,  -0.16055
  -0.05416,   0.02887,   0.01330,   0.06001,  -0.00486,  -0.11384,  -0.03860,   0.02627,  -0.12941,  -0.03600,  -0.07233,  -0.04897,   0.00811,  -0.03600,   0.01589,   0.03406,  -0.00486,  -0.05676,   0.11190,   0.13266,   0.02627,   0.03146,   0.00292,   0.00811,  -0.00746,  -0.01784,  -0.03600,  -0.08790,  -0.00746,   0.03146,  -0.06973,  -0.05676,   0.03925,   0.00811,   0.14044,   0.02627,  -0.03341,   0.12487,  -0.11903,  -0.06454,   0.04444,   0.08336,  -0.03341,  -0.04638,  -0.03600,   0.01849,   0.02108,   0.00811,   0.03925,   0.03665,  -0.05416,  -0.00227,  -0.14758,  -0.10346,   0.01849,   0.03406,   0.05482,   0.08336,  -0.03860,   0.00292,  -0.05157,  -0.08530,   0.11450,  -0.05676
   0.00033,  -0.02303,   0.00292,   0.08336,  -0.02822,  -0.01524,  -0.02562,  -0.07233,  -0.07492,  -0.10865,  -0.04897,   0.10152,   0.05741,   0.01330,  -0.09828,   0.04444,   0.13266,  -0.02822,   0.04184,   0.10931,  -0.04379,  -0.11384,  -0.05416,  -0.04379,  -0.05416,  -0.04119,  -0.00227,   0.06001,  -0.05416,   0.13006,   0.05222,  -0.00746,   0.12228,  -0.03341,   0.07817,  -0.07233,   0.06001,   0.08595,  -0.02303,   0.01589,  -0.09568,  -0.01524,  -0.03600,  -0.03081,  -0.02822,   0.03406,  -0.01524,  -0.00227,  -0.01005,  -0.05157,   0.03146,   0.02887,  -0.10865,  -0.09309,   0.01071,  -0.03600,  -0.07492,  -0.05676,  -0.04897,   0.01589,  -0.15017,   0.02887,  -0.20466,   0.01849
   0.03925,  -0.03600,   0.00811,  -0.08790,  -0.02303,  -0.04379,  -0.01005,  -0.02303,   0.10152,  -0.03600,  -0.02303,   0.16639,  -0.08271,  -0.01784,   0.03925,   0.03925,   0.05741,   0.04703,  -0.01524,   0.15601,  -0.04119,  -0.07492,   0.00552,   0.08336,  -0.04379,   0.01071,   0.07038,  -0.02043,  -0.11384,   0.10152,   0.14823,   0.01071,  -0.06195,  -0.05157,   0.07557,   0.00552,  -0.03081,   0.09114,  -0.04638,   0.03406,  -0.08790,  -0.06714,  -0.01784,   0.02368,  -0.03341,   0.02887,  -0.05416,  -0.01784,   0.03665,  -0.02562,   0.10671,   0.00811,  -0.09828,   0.00552,   0.02887,   0.04184,  -0.01524,   0.02368,  -0.01524,  -0.03341,  -0.08011,   0.13266,  -0.09828,  -0.04119
   0.01330,  -0.01524,   0.02887,  -0.13720,   0.01071,  -0.04379,  -0.01265,   0.02627,   0.12747,  -0.04119,  -0.07492,   0.03146,  -0.09309,  -0.03860,   0.12747,   0.02368,   0.02887,  -0.05416,   0.01330,   0.18974,   0.03406,  -0.04897,  -0.02043,   0.10412,  -0.00746,   0.00292,  -0.04638,  -0.05676,  -0.09049,   0.08595,   0.09893,  -0.05157,  -0.05157,  -0.04638,   0.02887,  -0.02043,  -0.17352,   0.07817,   0.11709,  -0.10865,   0.09114,  -0.10346,  -0.12941,  -0.04897,  -0.04379,   0.06779,  -0.02043,   0.04963,  -0.03600,   0.00552,   0.16120,   0.02368,  -0.06195,  -0.07492,   0.10412,  -0.04897,   0.01071,   0.09114,  -0.06973,  -0.05935,   0.05482,   0.09893,   0.00292,   0.00033
   0.03146,  -0.05416,  -0.05676,  -0.13460,  -0.01265,  -0.08530,   0.00292,   0.02368,   0.15601,   0.06779,  -0.15536,  -0.06195,  -0.06973,   0.01071,   0.16380,  -0.01524,   0.01330,   0.03925,   0.14563,   0.22348,   0.00033,   0.03146,   0.02368,   0.11450,   0.01071,   0.01071,  -0.04897,  -0.20466,  -0.12941,   0.05222,   0.09893,   0.02627,  -0.11903,  -0.04638,   0.07557,   0.04184,  -0.28769,   0.13006,  -0.11903,  -0.11384,   0.12228,  -0.10346,  -0.02822,  -0.01784,  -0.04379,  -0.02303,  -0.00227,   0.00292,  -0.01265,   0.02108,   0.11190,  -0.01005,   0.05482,  -0.06973,   0.01849,  -0.04897,   0.06520,   0.15342,  -0.07492,  -0.01265,  -0.01524,   0.00033,  -0.01784,  -0.10606
  -0.05416,   0.01330,  -0.04897,  -0.04379,   0.03925,  -0.03600,   0.04184,   0.00811,  -0.05935,  -0.06973,  -0.02822,   0.02368,   0.00033,  -0.01784,  -0.04638,   0.01589,  -0.00486,  -0.01524,   0.11969,   0.07298,   0.02887,   0.04184,  -0.02303,   0.00033,  -0.00746,  -0.02303,   0.08595,  -0.21763,  -0.12682,   0.13785,   0.10152,  -0.02043,  -0.01265,   0.04184,   0.06001,  -0.10087,  -0.06973,   0.14304,  -0.29288,   0.02108,  -0.03860,   0.05741,  -0.01005,   0.02108,   0.02108,  -0.01524,  -0.04379,   0.03665,  -0.02043,   0.00811,   0.05741,  -0.01784,  -0.01784,  -0.05935,  -0.00227,   0.00811,   0.01071,   0.13006,  -0.06195,   0.13006,  -0.09049,   0.03406,  -0.04379,  -0.07492
  -0.03081,  -0.04119,  -0.03081,  -0.01784,   0.02108,   0.00292,   0.02627,   0.01330,  -0.00486,  -0.01265,   0.02627,   0.04963,  -0.06714,   0.03146,   0.02368,  -0.02822,   0.07038,   0.02627,   0.04703,   0.07817,  -0.02562,   0.03925,  -0.04897,   0.04184,  -0.01524,   0.01071,   0.02627,  -0.04897,   0.02108,  -0.02822,   0.03665,   0.02108,  -0.09309,   0.02368,   0.00033,  -0.10087,   0.07298,   0.07557,  -0.08790,   0.06779,  -0.00486,  -0.03860,  -0.01784,  -0.02043,   0.00033,   0.03665,   0.01589,   0.00552,  -0.01524,   0.00033,   0.03406,   0.03146,   0.05741,   0.01330,  -0.05935,  -0.02562,  -0.06454,   0.07038,  -0.07233,   0.06520,   0.07038,   0.02108,  -0.08530,   0.05222
  -0.02043,   0.02627,   0.00292,   0.02368,  -0.03081,   0.15861,   0.03406,  -0.04379,  -0.06195,   0.02627,  -0.10606,   0.01589,   0.00552,  -0.02822,   0.06260,   0.00033,  -0.08790,   0.01071,   0.00811,   0.08336,   0.01071,   0.07298,  -0.05157,  -0.02822,   0.03146,  -0.03341,  -0.01265,   0.03146,   0.02627,  -0.09049,  -0.08790,   0.02627,  -0.12941,  -0.04897,   0.05741,  -0.03081,   0.06260,  -0.04379,   0.03406,  -0.04119,   0.05741,  -0.05935,   0.00033,   0.03406,  -0.02562,   0.03665,  -0.01784,  -0.03600,  -0.04119,   0.03665,   0.01330,  -0.01005,   0.07298,   0.04444,  -0.04119,  -0.03600,   0.02627,  -0.08011,  -0.07233,   0.09633,   0.02887,  -0.00227,   0.03146,   0.02887
   0.04184,   0.00033,  -0.04379,   0.05741,  -0.03600,  -0.10087,   0.03146,   0.03146,  -0.02562,   0.01849,   0.00292,   0.00811,   0.04184,  -0.01524,   0.03146,   0.00811,  -0.01005,   0.03925,   0.06520,   0.07817,   0.02887,   0.03146,   0.01330,   0.07817,  -0.02562,   0.03665,  -0.03860,  -0.19169,  -0.08271,   0.12228,   0.08595,  -0.03341,   0.00552,   0.01589,  -0.03081,   0.00811,  -0.10087,   0.05741,  -0.11644,  -0.05157,   0.08595,  -0.02303,  -0.18390,  -0.04638,  -0.04119,   0.01330,  -0.03600,  -0.04379,   0.01849,   0.03925,  -0.00486,   0.02108,  -0.09828,  -0.06714,   0.13525,   0.01849,   0.08336,   0.15601,  -0.00486,  -0.04897,  -0.11903,   0.00033,   0.02108,  -0.04638
   0.00033,  -0.01784,  -0.03341,   0.09893,   0.01849,  -0.17612,   0.03665,  -0.05676,   0.03406,   0.04703,  -0.02822,  -0.14239,  -0.04119,  -0.02303,  -0.01265,   0.01589,  -0.04638,  -0.05935,   0.15342,   0.13006,  -0.03081,   0.05741,  -0.00486,   0.06779,   0.01330,   0.02108,   0.04184,  -0.30067,  -0.16574,   0.11969,   0.06520,   0.02108,   0.04703,   0.01849,   0.04703,  -0.16833,  -0.18909,   0.20791,  -0.17093,  -0.00486,   0.03925,   0.11709,  -0.07233,   0.01330,  -0.03860,  -0.09568,  -0.04897,  -0.05157,  -0.03081,   0.03406,  -0.10606,  -0.01005,  -0.15277,  -0.05935,   0.14563,   0.00292,   0.09374,   0.20272,  -0.00746,  -0.11644,  -0.23839,   0.06520,  -0.00486,  -0.08271
  -0.04379,   0.02627,  -0.05416,   0.17158,  -0.05157,  -0.07492,  -0.00746,  -0.03081,  -0.06714,  -0.08011,  -0.04897,  -0.08011,   0.08336,   0.01849,  -0.14498,  -0.00227,  -0.11384,   0.01071,   0.02887,   0.02887,   0.04184,  -0.03341,  -0.00486,   0.02887,   0.02108,  -0.03860,  -0.02822,  -0.05676,  -0.16314,   0.08336,  -0.04119,   0.00033,   0.06779,  -0.01005,   0.09374,   0.03925,  -0.00227,   0.08336,  -0.09828,   0.02108,  -0.06195,   0.10152,  -0.06714,   0.00292,   0.04703,   0.00033,  -0.02562,  -0.02562,  -0.04638,   0.03925,   0.03146,  -0.03600,  -0.14239,   0.03665,   0.02887,   0.00033,   0.08855,   0.03146,   0.02887,   0.00811,  -0.13201,   0.09114,   0.06520,  -0.02043
   0.02368,  -0.02303,  -0.05416,   0.12487,   0.00033,   0.00811,  -0.04638,  -0.06714,  -0.08011,  -0.06973,  -0.04119,   0.03925,   0.08336,   0.00292,  -0.12941,   0.01071,  -0.05157,  -0.01265,   0.03925,   0.01071,   0.02627,  -0.01005,  -0.01784,   0.00292,  -0.02822,   0.04184,  -0.04638,   0.00552,  -0.04119,   0.05741,  -0.06714,  -0.04119,   0.09893,  -0.04897,   0.03406,   0.02368,   0.10412,   0.05741,   0.04963,  -0.00227,   0.01330,   0.04444,  -0.07233,   0.02627,  -0.02303,   0.03665,   0.00292,  -0.05157,   0.01589,  -0.05416,  -0.03600,   0.05482,  -0.08530,   0.00811,   0.05482,  -0.01005,   0.05741,   0.03665,  -0.07492,   0.04963,  -0.06973,   0.02108,   0.07038,  -0.01005
   0.00033,   0.01849,  -0.05935,   0.08336,  -0.04897,  -0.01784,   0.03925,   0.02887,  -0.03081,  -0.01784,  -0.12163,  -0.03860,   0.01071,   0.02887,   0.01071,   0.00552,  -0.10865,  -0.04119,  -0.01005,   0.02627,   0.00552,   0.01071,   0.02368,   0.02368,   0.02108,   0.00811,  -0.07233,  -0.03341,  -0.03341,   0.07298,  -0.11903,   0.03665,   0.00552,   0.01849,   0.05482,   0.10931,  -0.01265,  -0.03600,  -0.00486,  -0.02822,   0.09114,   0.06520,  -0.10606,  -0.03860,   0.04963,   0.08855,  -0.03860,   0.01849,   0.03406,  -0.03860,  -0.00486,   0.00292,  -0.08790,  -0.02043,   0.02887,   0.02368,   0.03146,   0.01071,  -0.08271,   0.05222,  -0.02562,  -0.07233,   0.07557,   0.02627
   0.02108,   0.03406,  -0.02043,   0.08855,   0.04184,  -0.01265,   0.02627,  -0.00746,   0.02368,  -0.00227,  -0.00227,   0.01330,   0.00552,   0.03925,  -0.00486,   0.00811,   0.01071,  -0.04119,  -0.07752,  -0.04638,  -0.05157,   0.00033,  -0.00227,  -0.02303,  -0.01524,  -0.04379,  -0.02822,   0.05482,  -0.02562,   0.04963,   0.06520,  -0.04379,  -0.01265,   0.01589,  -0.02303,   0.02108,   0.04963,   0.01589,   0.10671,   0.03925,  -0.03341,   0.04703,  -0.05676,  -0.02822,  -0.02822,   0.09114,   0.01071,  -0.04379,  -0.03341,  -0.02043,  -0.02303,   0.03665,   0.01330,  -0.03081,   0.01071,   0.03665,  -0.02562,  -0.01784,  -0.01524,   0.00033,   0.04703,  -0.01784,   0.11190,  -0.07492
  -0.02303,  -0.03600,  -0.04638,   0.02887,   0.03925,  -0.04119,   0.01589,   0.01330,   0.00811,  -0.01524,  -0.00746,   0.09374,  -0.01005,  -0.02562,  -0.03600,   0.03146,  -0.01265,  -0.03860,   0.00292,  -0.05676,   0.00292,   0.01330,  -0.00486,   0.01071,   0.01071,  -0.03341,  -0.00486,   0.02368,   0.03665,  -0.00227,   0.02368,   0.00292,   0.02368,  -0.04897,  -0.03860,   0.00552,   0.06001,   0.01330,   0.05482,   0.01330,   0.01071,   0.01071,  -0.02822,   0.02887,   0.00033,   0.00811,  -0.04897,  -0.02562,  -0.00486,  -0.00227,   0.06779,  -0.02303,  -0.01524,  -0.01005,   0.02108,   0.03665,   0.04444,  -0.03341,   0.05222,   0.06779,  -0.03341,  -0.01265,   0.01849,  -0.00227
  -0.01524,   0.02887,  -0.02303,  -0.05935,   0.01330,   0.01330,  -0.02822,  -0.02562,   0.02887,  -0.06454,   0.04963,   0.07038,   0.02368,  -0.04119,  -0.00486,   0.03146,   0.03146,   0.02368,  -0.02043,  -0.01005,  -0.03081,   0.01071,   0.03146,  -0.02562,  -0.02562,   0.04184,  -0.03081,   0.01330,   0.01849,   0.04444,  -0.02822,  -0.01265,   0.06260,   0.00811,   0.03665,  -0.03341,   0.02368,  -0.06195,   0.03406,   0.03925,  -0.06714,   0.04444,   0.05482,   0.02627,   0.03925,   0.01589,   0.00033,  -0.03600,  -0.04897,   0.02627,  -0.00227,   0.02627,   0.03406,  -0.03341,   0.00811,   0.04703,   0.03146,  -0.03860,   0.02887,   0.02887,  -0.01005,   0.00292,   0.01071,   0.05222
   0.02108,   0.01849,   0.02108,   0.02887,  -0.03081,   0.01589,  -0.01005,  -0.00486,   0.05741,   0.03406,  -0.01784,   0.04963,   0.01071,  -0.03600,   0.01071,  -0.01265,   0.04184,  -0.05935,  -0.00746,  -0.04897,  -0.03600,   0.01849,   0.00811,  -0.01005,   0.01330,  -0.02043,   0.00292,   0.03406,   0.05222,   0.07557,  -0.01784,  -0.01005,   0.01330,  -0.04119,   0.07038,  -0.06714,  -0.02562,   0.03665,   0.04963,   0.01589,   0.00292,  -0.02562,   0.02368,  -0.02562,   0.02108,  -0.01524,   0.01330,   0.00552,  -0.02822,   0.01330,  -0.03860,  -0.04897,   0.01849,  -0.08271,   0.04444,   0.06779,   0.04184,  -0.02303,   0.00811,   0.07817,   0.05222,  -0.01005,  -0.02822,   0.02627
   0.02108,  -0.00227,   0.02887,  -0.04119,  -0.01784,  -0.03860,  -0.01784,   0.02627,   0.01589,   0.02627,   0.06520,  -0.00486,   0.01330,   0.02627,   0.05741,  -0.03341,  -0.03341,  -0.01005,  -0.03860,  -0.00746,   0.04184,  -0.00227,   0.01330,   0.03925,  -0.04119,  -0.04897,  -0.05157,  -0.01265,   0.04703,   0.06001,  -0.03341,  -0.04119,  -0.08271,   0.04184,   0.02108,  -0.00227,   0.02368,  -0.05157,   0.04963,   0.02887,   0.06520,   0.02887,  -0.07233,  -0.03860,   0.00033,   0.01071,   0.00552,   0.00292,   0.01849,  -0.01784,  -0.02562,   0.00033,   0.03406,  -0.04638,   0.04184,   0.05482,   0.04703,   0.00033,   0.01589,  -0.03860,   0.10152,   0.02368,  -0.07233,   0.06520
   0.01330,  -0.02043,   0.00811,   0.02887,   0.02627,  -0.03600,  -0.03341,   0.00033,   0.07817,  -0.01265,  -0.01784,   0.01589,   0.08595,   0.01849,  -0.06454,   0.00552,   0.00552,  -0.00746,  -0.04897,  -0.08271,  -0.04638,  -0.04638,  -0.00486,   0.01589,  -0.04897,   0.00033,   0.02627,   0.05482,   0.07557,   0.03925,   0.02627,  -0.03081,   0.03406,   0.00033,  -0.12941,   0.03406,  -0.02562,  -0.05935,   0.11190,   0.02627,  -0.01784,  -0.00746,  -0.05676,   0.01589,  -0.01784,  -0.02562,  -0.00486,  -0.03600,   0.04444,   0.02627,  -0.02822,  -0.03860,  -0.01524,   0.01589,   0.04184,   0.02108,   0.06520,  -0.08271,  -0.05157,  -0.01524,   0.00811,   0.07817,  -0.02822,  -0.02822
  -0.02043,   0.00033,  -0.05157,   0.04184,  -0.05416,   0.01589,   0.03925,   0.03406,  -0.04897,   0.04963,   0.09374,  -0.00746,   0.00292,   0.04184,  -0.01524,  -0.02822,   0.08595,   0.00552,   0.03665,  -0.04638,  -0.00746,   0.00033,  -0.05157,   0.02108,  -0.01784,   0.01589,   0.03925,  -0.02822,  -0.05416,  -0.04897,   0.05222,   0.00033,   0.01589,  -0.00486,  -0.03860,  -0.01784,  -0.03081,  -0.07752,   0.03925,  -0.01524,   0.00292,   0.02368,   0.01071,  -0.02043,  -0.03600,  -0.03600,   0.04184,  -0.01524,   0.01589,   0.02627,   0.02887,  -0.03860,   0.07557,   0.03406,  -0.02303,  -0.02303,   0.09374,  -0.00227,  -0.01005,  -0.04379,  -0.06973,   0.00552,   0.01071,   0.04444
  -0.00746,  -0.01524,  -0.01524,   0.04184,  -0.02043,  -0.01784,  -0.04897,  -0.03341,   0.01330,   0.02108,   0.02627,  -0.01524,   0.05222,  -0.03600,   0.01849,   0.02368,  -0.01524,  -0.03341,   0.03406,  -0.01005,  -0.01005,  -0.05157,  -0.04119,   0.02368,  -0.02562,  -0.04897,  -0.00227,   0.00033,   0.02368,   0.04184,   0.02627,  -0.03341,   0.06779,   0.01849,   0.00811,   0.01589,   0.03665,  -0.01524,   0.03146,   0.01589,   0.01589,   0.00552,   0.03146,  -0.02562,   0.04444,   0.02368,  -0.01784,   0.00811,  -0.02043,  -0.03081,  -0.06454,  -0.03081,  -0.01784,   0.08336,  -0.01784,  -0.02303,   0.03925,   0.00033,   0.00811,   0.02368,  -0.05935,   0.08595,   0.01849,  -0.00486
   0.03665,  -0.01524,  -0.03600,  -0.01265,  -0.03600,   0.10412,  -0.02043,  -0.01265,  -0.03860,   0.02887,  -0.01265,  -0.01005,  -0.02562,   0.03146,   0.02368,  -0.02043,   0.03146,  -0.03600,   0.02887,   0.01589,  -0.01524,   0.07298,  -0.01265,   0.03146,  -0.04897,  -0.00227,   0.11450,   0.02108,   0.02108,   0.07038,  -0.01265,   0.02887,  -0.12422,   0.02887,   0.00292,   0.00552,   0.04703,   0.08595,  -0.01524,   0.04963,   0.04184,   0.04184,   0.07298,   0.04444,   0.00552,  -0.07492,   0.02108,  -0.05416,  -0.01005,   0.01330,  -0.07492,   0.00033,   0.09374,   0.05482,  -0.03860,  -0.00486,   0.01589,   0.11450,  -0.01005,  -0.01784,   0.00292,  -0.01524,  -0.05157,  -0.04379
  -0.01784,  -0.02043,  -0.05676,   0.00552,  -0.05676,   0.05741,  -0.01784,   0.03406,   0.01849,   0.02887,   0.00811,  -0.04897,  -0.04119,  -0.01265,   0.01330,  -0.00486,  -0.07752,   0.03925,   0.01849,   0.04703,  -0.03860,   0.03665,   0.01589,   0.00033,  -0.05676,   0.02108,   0.08855,   0.03406,   0.02627,  -0.01005,  -0.06195,  -0.00486,  -0.06973,  -0.03341,   0.00552,   0.02368,  -0.00746,   0.07038,  -0.02303,   0.01589,  -0.02822,   0.00811,  -0.00227,  -0.04897,  -0.01524,   0.02368,  -0.02562,   0.03925,  -0.03600,  -0.02043,  -0.07752,  -0.05676,   0.07557,   0.07298,  -0.08011,   0.07298,   0.00033,   0.05482,   0.00292,  -0.01784,   0.03925,  -0.05416,  -0.02303,  -0.04119
   0.03406,   0.00552,   0.02627,   0.07298,   0.02627,  -0.02562,   0.00292,  -0.00486,  -0.02303,  -0.03860,  -0.02822,   0.03925,   0.12487,  -0.04638,  -0.07492,  -0.03341,   0.07038,   0.01071,  -0.02562,  -0.06973,  -0.02303,  -0.03341,  -0.03600,  -0.03860,  -0.03860,  -0.02562,   0.00552,   0.01071,   0.08595,  -0.05676,  -0.01784,  -0.02303,   0.00811,   0.02887,  -0.09309,   0.06260,   0.05222,  -0.04638,   0.00292,   0.02108,  -0.01005,   0.06779,  -0.01005,  -0.00227,  -0.03860,  -0.02303,  -0.00486,  -0.02562,  -0.01265,  -0.00746,  -0.01265,   0.03665,   0.03146,  -0.00227,  -0.00486,  -0.02822,   0.08336,  -0.07752,  -0.03081,  -0.02043,  -0.02043,   0.08855,  -0.04119,   0.10671
  -0.02043,   0.03925,  -0.02043,   0.01071,  -0.00746,   0.02627,  -0.02822,   0.02627,  -0.04379,   0.10671,   0.08336,  -0.04638,   0.10931,  -0.03081,   0.03925,   0.03146,   0.06260,   0.03665,  -0.08011,  -0.03081,  -0.00486,   0.01849,   0.01589,  -0.02562,  -0.04379,  -0.02562,  -0.02822,   0.00292,   0.04963,  -0.09049,   0.02108,  -0.02562,  -0.00486,   0.01589,  -0.11903,   0.05482,   0.00552,  -0.09828,  -0.06195,   0.03406,  -0.01784,  -0.00486,  -0.02562,  -0.02303,   0.01330,  -0.03860,  -0.01784,   0.04184,   0.01589,   0.00811,  -0.03600,  -0.04119,   0.03925,  -0.00486,  -0.07492,   0.03665,   0.07298,  -0.04379,   0.04444,   0.00292,   0.02627,   0.01330,   0.07038,   0.10412
  -0.02303,  -0.02303,  -0.04638,   0.08855,  -0.03600,  -0.04119,  -0.01265,   0.00811,   0.06260,   0.01071,   0.04703,   0.07557,   0.02887,  -0.00746,  -0.03600,  -0.03600,   0.00292,  -0.02043,  -0.07233,  -0.04897,  -0.01005,  -0.07233,  -0.05416,   0.03406,   0.02108,   0.03406,   0.05741,   0.02368,   0.01589,   0.09114,   0.04703,  -0.02562,   0.04703,  -0.04119,   0.00292,  -0.05416,  -0.00746,   0.02627,   0.03925,   0.00292,  -0.02822,   0.02108,   0.03406,  -0.02822,  -0.04379,  -0.02822,  -0.04119,  -0.00746,  -0.01265,   0.01589,   0.00292,  -0.02822,   0.05482,  -0.01005,   0.00552,   0.03925,   0.00292,   0.09114,  -0.04379,  -0.07752,   0.01849,   0.00811,  -0.02562,  -0.00746
  -0.02562,   0.02627,   0.01071,  -0.08530,  -0.02562,   0.00292,  -0.01524,  -0.01005,   0.03406,   0.03406,  -0.01784,  -0.08271,  -0.02043,   0.02108,   0.00292,  -0.04379,   0.01849,  -0.01005,   0.08336,  -0.04119,   0.03146,   0.10412,   0.03406,  -0.03081,  -0.03081,   0.00292,   0.07817,  -0.06195,  -0.01265,  -0.00746,   0.06001,   0.01330,  -0.06714,  -0.01784,   0.00292,  -0.04638,  -0.05416,   0.05482,   0.05482,   0.00811,  -0.05935,  -0.01265,   0.01589,  -0.04638,   0.03406,   0.00552,   0.00552,  -0.03860,  -0.04379,  -0.04119,  -0.02822,  -0.04897,   0.09633,   0.05222,  -0.03081,   0.00292,  -0.05676,   0.00811,   0.01589,   0.02887,   0.07557,  -0.04638,   0.04963,  -0.04119
  -0.02303,  -0.00486,  -0.04638,   0.04703,  -0.00486,   0.11709,  -0.05416,  -0.03341,  -0.08530,   0.02108,  -0.02303,  -0.04119,   0.02368,   0.00033,  -0.02562,  -0.03600,  -0.01784,  -0.03860,  -0.01005,   0.00811,  -0.00486,   0.10671,   0.01589,  -0.02562,   0.01589,   0.03406,   0.02887,   0.06260,   0.04963,  -0.08271,  -0.05676,  -0.00227,  -0.00486,  -0.00486,  -0.02043,   0.02627,   0.06779,  -0.00746,   0.00811,   0.01589,   0.05222,   0.00033,   0.02368,   0.04184,  -0.04638,   0.01849,   0.04184,  -0.04897,   0.00552,  -0.05416,  -0.08530,  -0.00486,   0.07298,   0.09114,  -0.09828,  -0.01784,   0.03406,  -0.03341,  -0.05676,  -0.03081,  -0.01784,  -0.03600,   0.03146,  -0.04897
   0.02887,   0.03146,   0.00552,  -0.05157,  -0.02303,   0.04703,  -0.04119,   0.00811,  -0.04379,  -0.04897,  -0.01784,   0.00292,   0.06001,  -0.02562,  -0.06973,   0.00033,   0.01071,   0.01849,  -0.09049,  -0.10346,   0.03665,   0.07817,   0.02887,  -0.09049,   0.00033,  -0.04897,  -0.00486,   0.01589,   0.06260,  -0.05935,  -0.04897,   0.02108,  -0.07752,  -0.03081,  -0.03081,  -0.02822,   0.06001,  -0.15536,  -0.11903,   0.02887,  -0.01265,   0.03925,  -0.01265,  -0.03860,  -0.01784,   0.06260,   0.03925,   0.03665,  -0.00227,   0.03925,   0.06260,   0.01330,   0.01849,   0.07038,  -0.03600,   0.03925,   0.01589,  -0.12163,   0.01849,   0.03665,   0.00552,  -0.01005,  -0.00486,   0.04184
  -0.04638,   0.02368,  -0.05416,  -0.03081,  -0.04897,   0.07298,  -0.04638,  -0.00227,  -0.03081,  -0.02303,  -0.01265,   0.05482,   0.01589,  -0.01265,  -0.00746,  -0.00746,  -0.01265,  -0.04379,  -0.07752,  -0.01784,   0.00811,   0.04703,   0.03665,  -0.07752,   0.03925,  -0.02303,  -0.04638,   0.08336,   0.06779,  -0.13979,  -0.02562,  -0.02822,  -0.11125,  -0.01265,   0.01071,   0.02627,   0.09114,  -0.11384,   0.02627,   0.04963,   0.02368,   0.03146,   0.06001,   0.03925,  -0.00486,   0.09374,  -0.05157,   0.03146,  -0.03600,  -0.05416,   0.06001,   0.00552,   0.07817,   0.04963,   0.00292,   0.03925,  -0.01784,  -0.10865,   0.00811,   0.09633,   0.09374,   0.03406,   0.02368,   0.05482
  -0.03860,   0.02108,  -0.01265,  -0.04119,   0.00292,   0.02627,  -0.05157,  -0.02822,   0.02627,  -0.00486,   0.04963,   0.09114,   0.01071,  -0.02822,  -0.04119,  -0.03341,   0.06001,  -0.03860,   0.07557,   0.01589,  -0.04119,   0.05222,  -0.03600,  -0.07233,   0.01071,  -0.03600,  -0.00486,   0.02627,  -0.01005,  -0.05416,   0.01589,  -0.01784,  -0.03081,   0.00552,   0.00033,  -0.03860,   0.05741,   0.01589,   0.06520,  -0.07492,  -0.06973,  -0.00746,   0.03146,   0.01330,  -0.04638,   0.01849,  -0.05416,  -0.00227,   0.03925,  -0.03860,   0.10412,   0.02368,   0.00033,  -0.02562,   0.01849,   0.09114,  -0.07752,  -0.04897,  -0.01784,   0.14823,   0.01849,  -0.02822,   0.03146,   0.08855
   0.04184,  -0.04638,   0.00811,   0.05741,   0.02627,   0.01849,  -0.01005,   0.02887,  -0.05416,   0.05741,   0.03406,  -0.04638,   0.05741,  -0.00486,   0.07557,   0.00292,  -0.01524,   0.00811,   0.05741,  -0.00486,   0.00811,   0.09374,  -0.04119,  -0.07752,  -0.03341,  -0.01784,  -0.04897,  -0.07752,  -0.03341,  -0.04897,   0.01071,  -0.02562,   0.02108,   0.01071,  -0.02562,  -0.00486,   0.01330,  -0.04379,  -0.00486,   0.03665,   0.00811,   0.06001,  -0.01784,  -0.01005,  -0.04379,  -0.03081,  -0.02043,   0.02108,  -0.00486,  -0.00746,  -0.05676,  -0.00227,   0.04963,   0.00033,   0.03925,   0.06779,   0.03146,  -0.02562,  -0.04119,  -0.03860,   0.02887,   0.04963,   0.07298,  -0.01784
  -0.04897,  -0.03081,   0.03925,   0.07557,   0.00552,   0.00552,   0.01589,  -0.00227,  -0.01784,   0.04703,   0.00033,  -0.07752,   0.10152,  -0.05416,   0.07038,   0.00552,   0.01589,  -0.04897,  -0.06454,  -0.03600,   0.00033,   0.06520,   0.02887,  -0.00486,   0.04184,  -0.02822,  -0.06195,  -0.06454,   0.05482,   0.08076,  -0.02562,  -0.04638,   0.00552,  -0.01265,  -0.07752,   0.08595,  -0.02822,   0.01330,  -0.01005,  -0.03600,   0.08076,   0.02887,  -0.04638,  -0.01005,   0.03665,  -0.06454,  -0.01265,   0.02368,  -0.00227,   0.00033,  -0.08011,   0.00033,  -0.00746,   0.03146,  -0.09049,   0.05482,   0.03406,   0.00552,  -0.02562,  -0.04119,   0.01071,  -0.01005,   0.05741,   0.02368
  -0.03600,  -0.00486,   0.00811,  -0.01524,   0.00292,   0.00033,   0.03665,   0.01589,  -0.00486,  -0.03860,  -0.11644,  -0.02822,  -0.00486,  -0.02822,  -0.01005,   0.03146,  -0.05676,   0.00552,   0.02627,  -0.05935,   0.04444,   0.06260,   0.03665,  -0.05676,   0.00292,   0.01330,   0.06001,   0.03406,   0.02627,  -0.01524,  -0.04897,   0.04184,  -0.06195,   0.04184,   0.01330,   0.02887,  -0.02822,  -0.07752,  -0.06195,  -0.03600,   0.00033,   0.01071,   0.04963,  -0.03341,   0.04444,   0.03406,   0.00552,  -0.01005,   0.02627,  -0.04638,   0.05222,  -0.01524,   0.00292,   0.04444,   0.01330,   0.05482,  -0.04638,  -0.02303,  -0.03341,   0.04963,   0.01071,  -0.07752,   0.00811,   0.06520
  -0.04638,  -0.01005,  -0.04638,   0.03665,   0.00552,   0.04703,  -0.01005,  -0.05416,  -0.00227,  -0.02562,  -0.00486,   0.01330,  -0.02303,   0.01849,   0.05222,  -0.01784,   0.00811,  -0.01524,   0.03665,  -0.00486,   0.01071,   0.01589,   0.03406,  -0.01005,  -0.03860,   0.00033,  -0.00746,   0.04963,  -0.02043,  -0.04119,  -0.05676,   0.02887,  -0.00746,   0.01849,   0.00292,   0.08855,   0.01849,  -0.01784,   0.05741,   0.00552,  -0.01005,   0.06779,   0.02887,   0.00033,  -0.03600,   0.06520,   0.01589,   0.01849,  -0.01524,  -0.02822,   0.08336,   0.01071,   0.00552,   0.04184,  -0.00486,  -0.00746,  -0.01784,  -0.02303,  -0.01784,   0.09633,   0.00552,  -0.04897,   0.00033,   0.06260
  -0.04638,  -0.02303,  -0.02562,   0.02368,  -0.04897,  -0.05157,   0.01071,   0.00811,   0.04963,   0.00811,   0.02368,  -0.00486,   0.02368,   0.00033,   0.03406,  -0.01265,  -0.04119,   0.02887,  -0.01524,   0.02627,  -0.03600,   0.04444,   0.03925,   0.04444,  -0.02562,   0.02887,  -0.01265,  -0.00486,  -0.01784,   0.01849,   0.03406,  -0.00227,  -0.01265,  -0.04638,   0.01330,   0.05482,  -0.04379,  -0.01784,   0.08076,  -0.05157,   0.05222,   0.02108,   0.01071,  -0.00486,  -0.03600,   0.02627,   0.00292,   0.00033,  -0.05157,  -0.03081,  -0.03081,  -0.00746,   0.00811,  -0.04897,   0.02887,  -0.02822,   0.04444,   0.00292,   0.00552,  -0.02822,   0.00552,   0.03925,   0.06001,   0.03406
  -0.04638,   0.00552,  -0.00746,   0.04184,   0.02108,  -0.00486,  -0.03341,  -0.00227,   0.05741,  -0.08271,  -0.05676,   0.08076,   0.01071,  -0.02822,   0.03665,   0.03665,  -0.00227,  -0.02562,  -0.08011,   0.04963,   0.03925,  -0.06714,  -0.01005,   0.06260,   0.01849,  -0.01524,   0.01071,   0.06520,  -0.01265,   0.10931,   0.02627,   0.02108,   0.04703,  -0.04379,  -0.02822,   0.01330,   0.07817,   0.02368,   0.02368,   0.06260,  -0.04119,   0.05741,  -0.01265,  -0.03600,  -0.01784,   0.03665,  -0.03081,  -0.04379,   0.03925,  -0.00227,   0.02627,  -0.05416,  -0.06714,  -0.01005,   0.01589,   0.01849,  -0.00746,  -0.03081,   0.00292,  -0.05935,  -0.01524,   0.05741,  -0.01005,   0.01330
   0.01071,  -0.01784,   0.04703,   0.03925,   0.03665,  -0.07233,   0.02108,  -0.01005,   0.02108,  -0.03860,   0.01849,   0.08855,  -0.06454,   0.01589,  -0.11644,   0.01330,   0.01330,   0.03406,  -0.06454,   0.06779,   0.03665,  -0.08011,  -0.03600,   0.01071,  -0.04638,   0.01589,   0.02887,  -0.02043,  -0.02822,   0.12487,  -0.00746,  -0.00486,  -0.03341,  -0.01524,  -0.08530,  -0.02303,   0.06260,  -0.00227,  -0.10087,   0.07038,  -0.00746,   0.01330,  -0.08530,  -0.04638,   0.04444,   0.00811,   0.03406,   0.02368,  -0.04897,   0.02887,   0.04184,   0.02108,  -0.03341,  -0.04379,  -0.02562,   0.02887,  -0.06973,   0.05741,  -0.00486,   0.00552,  -0.01005,   0.09633,  -0.02562,  -0.01524
   0.03665,   0.03665,  -0.02562,  -0.01784,  -0.05157,   0.01589,  -0.00227,   0.01071,   0.00033,  -0.00486,   0.01330,   0.00033,  -0.03600,  -0.01784,   0.02627,   0.02108,   0.04703,   0.03925,   0.05222,   0.01330,  -0.02043,   0.06260,  -0.00746,   0.01330,   0.00811,  -0.03081,  -0.05676,  -0.02043,  -0.01005,   0.02627,   0.03146,  -0.03341,  -0.03081,   0.03925,  -0.04379,  -0.00746,  -0.04897,  -0.01524,  -0.00746,  -0.00227,   0.02887,   0.02887,  -0.03081,  -0.03860,   0.01849,  -0.01784,  -0.01524,   0.01589,  -0.01784,   0.00552,   0.02108,  -0.00746,   0.02887,   0.02108,  -0.01784,   0.02887,   0.08855,  -0.01005,  -0.04119,  -0.12422,   0.01330,  -0.03081,   0.05741,  -0.03600
  -0.01265,   0.00292,   0.04444,   0.02887,  -0.01005,   0.00292,   0.01589,   0.03665,  -0.00486,   0.03146,  -0.11644,  -0.04379,  -0.01265,   0.04444,   0.04963,   0.02108,  -0.03341,  -0.04638,   0.07038,   0.10931,   0.01330,   0.04703,  -0.02822,   0.00811,   0.03406,  -0.04638,   0.04703,   0.04963,  -0.01524,   0.00033,   0.01589,   0.01849,   0.01330,  -0.05157,   0.03406,  -0.03081,  -0.04638,   0.06001,   0.06001,  -0.01784,   0.06779,   0.04184,   0.01071,  -0.04897,   0.03146,   0.04444,  -0.03081,   0.01589,  -0.01784,   0.02887,   0.01849,  -0.04638,  -0.00227,   0.00033,   0.01589,  -0.05676,   0.00292,   0.05482,   0.03146,  -0.00746,   0.03665,  -0.04119,  -0.05157,  -0.03081
  -0.02562,  -0.00746,  -0.03860,  -0.03081,  -0.04119,  -0.01005,   0.01330,  -0.02043,   0.03406,   0.03665,   0.00552,  -0.09049,  -0.12163,  -0.05416,   0.00292,  -0.01784,   0.00292,  -0.03860,   0.09114,   0.03665,   0.03406,   0.08855,  -0.04119,   0.01071,  -0.02303,  -0.04897,   0.07298,  -0.01784,  -0.02043,  -0.03860,   0.04444,  -0.01784,   0.01589,   0.00552,   0.02368,   0.02887,  -0.05416,   0.09633,   0.03665,   0.03925,  -0.02303,  -0.01265,   0.02368,   0.01330,   0.03146,  -0.01265,  -0.00746,   0.03665,  -0.00746,  -0.02303,   0.01330,  -0.02303,   0.07298,   0.08855,  -0.02043,  -0.02822,   0.01330,   0.00552,  -0.06195,   0.04444,   0.00552,   0.02627,  -0.05676,  -0.04379
  -0.04119,   0.00033,   0.03146,   0.00292,   0.00033,   0.06260,  -0.03081,  -0.01265,   0.06001,  -0.03860,  -0.04379,  -0.10606,  -0.04897,  -0.01265,   0.00552,  -0.03860,  -0.03341,   0.02887,  -0.00746,   0.01330,   0.00811,   0.02627,   0.03146,  -0.00746,  -0.02043,  -0.02822,   0.05741,   0.02368,   0.04184,  -0.03600,  -0.03081,   0.01330,   0.01589,  -0.02303,   0.02108,  -0.01005,  -0.02043,   0.09374,   0.02108,  -0.01265,   0.00292,   0.03406,   0.06260,  -0.05416,  -0.02303,  -0.05935,  -0.01005,   0.03146,  -0.04379,   0.03665,   0.02887,   0.03406,   0.04444,   0.08595,   0.03146,   0.03925,   0.00033,   0.00292,  -0.04638,   0.04963,   0.06779,   0.00292,  -0.06973,   0.00292
   0.04444,   0.02627,   0.01589,   0.02887,   0.03665,   0.03665,  -0.03081,  -0.06195,   0.02108,   0.00033,  -0.04379,  -0.03860,   0.01071,   0.03146,  -0.07233,   0.02108,  -0.08011,   0.02627,  -0.05935,   0.01589,   0.01589,   0.00811,  -0.03341,   0.07038,   0.01589,  -0.05416,   0.07038,   0.03406,  -0.01265,   0.00292,  -0.04897,  -0.03600,  -0.11125,   0.00292,  -0.02043,   0.03146,  -0.02303,  -0.02822,   0.03665,  -0.02562,  -0.03600,   0.01071,   0.04703,   0.00292,   0.03146,   0.02627,  -0.03600,   0.01589,  -0.02303,  -0.01524,   0.05482,   0.00552,   0.04444,   0.03406,  -0.00486,   0.00292,  -0.04379,   0.02108,  -0.04638,   0.00292,   0.00811,   0.05741,  -0.08011,   0.03925
   0.01589,  -0.04897,  -0.00486,   0.01071,   0.02108,   0.09114,  -0.05157,  -0.00746,  -0.02822,   0.02108,  -0.08271,  -0.03081,  -0.01524,   0.03406,   0.00811,  -0.02303,   0.07038,  -0.01265,   0.06260,   0.02627,  -0.04119,   0.06001,   0.00811,  -0.04379,  -0.03341,  -0.04379,   0.03925,  -0.00746,   0.01330,  -0.01005,   0.04184,  -0.04638,  -0.09049,   0.02108,  -0.04379,  -0.04638,   0.05222,   0.04703,   0.04444,   0.00033,  -0.03600,  -0.02303,   0.03665,  -0.02303,   0.01330,  -0.04119,  -0.02303,   0.01589,  -0.02303,   0.02368,  -0.05157,  -0.04119,   0.06520,   0.04703,  -0.10087,   0.02887,  -0.04119,  -0.02822,  -0.05157,   0.04444,   0.05482,  -0.02562,  -0.03860,  -0.07233
  -0.03600,  -0.01005,   0.01849,   0.00552,   0.03925,   0.06260,   0.02108,   0.00292,  -0.02043,   0.05482,  -0.07233,   0.02887,   0.02887,   0.01589,  -0.00227,   0.03146,   0.03146,  -0.05676,   0.02627,   0.02108,  -0.01524,   0.01849,   0.01071,   0.07817,  -0.03860,  -0.01784,  -0.00227,   0.02368,  -0.01265,  -0.02822,   0.07038,  -0.00227,  -0.04379,  -0.01524,  -0.03081,  -0.01524,  -0.05157,   0.02627,   0.07557,  -0.00746,   0.01589,  -0.03081,  -0.05416,  -0.03081,  -0.04379,  -0.03860,   0.02368,   0.02627,  -0.03600,  -0.04119,   0.01330,  -0.06973,   0.04444,  -0.00486,  -0.06195,  -0.04119,   0.01849,  -0.03081,  -0.03860,  -0.02303,  -0.02043,   0.04444,   0.02368,   0.01589
  -0.04638,  -0.00486,  -0.05676,   0.00552,  -0.02303,   0.04444,   0.03925,  -0.02043,   0.00292,   0.07038,   0.00033,   0.04184,   0.00292,  -0.04379,  -0.01005,   0.00811,   0.04963,   0.02627,  -0.01265,   0.03925,  -0.05157,  -0.02043,  -0.02043,   0.04444,  -0.03860,  -0.01265,   0.03406,   0.04703,   0.01071,   0.00811,  -0.00746,  -0.05676,  -0.03600,  -0.01784,   0.00033,  -0.04119,  -0.03341,  -0.00746,  -0.00227,  -0.03600,   0.05222,  -0.04638,  -0.04638,  -0.04638,  -0.00746,  -0.02043,   0.01589,   0.00033,  -0.03341,  -0.01784,  -0.01524,  -0.02303,   0.09114,   0.03406,  -0.01784,  -0.04119,   0.02627,   0.02108,  -0.04897,  -0.04379,   0.02887,  -0.01005,  -0.03860,  -0.03081
  -0.01784,   0.00033,   0.03406,  -0.02562,  -0.05676,   0.07298,   0.03146,  -0.01524,  -0.01005,  -0.00486,  -0.02562,  -0.09828,  -0.04379,  -0.03081,  -0.01005,  -0.00227,   0.00552,  -0.02822,   0.03925,   0.03665,   0.00033,   0.04444,   0.02368,   0.01849,  -0.04897,  -0.03341,   0.03665,   0.03406,   0.01849,  -0.04638,  -0.02043,  -0.02043,  -0.00486,   0.00033,   0.04184,   0.03406,   0.05741,   0.06779,   0.06001,   0.03406,   0.05741,   0.07557,   0.05222,   0.03146,   0.03925,  -0.03081,  -0.00486,  -0.01784,   0.02108,  -0.04119,  -0.04638,  -0.01784,   0.07298,   0.03925,  -0.06973,   0.05741,  -0.06714,   0.01849,  -0.06195,   0.03146,   0.01589,  -0.07233,   0.03665,  -0.06195
  -0.00227,   0.02368,   0.03406,   0.03146,  -0.02562,   0.00552,   0.01071,  -0.01005,  -0.04119,  -0.00746,  -0.01265,  -0.05676,   0.02887,   0.01849,  -0.02043,  -0.04897,   0.02627,  -0.04119,   0.03665,   0.05741,  -0.03341,   0.04963,  -0.01524,   0.02108,  -0.00746,   0.02108,   0.03665,   0.05222,   0.07298,  -0.01265,  -0.04638,   0.03665,  -0.00227,  -0.02043,   0.01589,   0.10412,   0.04703,   0.04444,  -0.05935,   0.02368,   0.02627,   0.04703,   0.04963,  -0.05416,  -0.00486,   0.02368,  -0.03860,   0.04444,  -0.01524,   0.03406,   0.04184,  -0.03081,   0.02368,   0.08855,  -0.03081,  -0.08271,   0.08595,  -0.03081,  -0.06195,  -0.01005,  -0.05157,   0.02108,  -0.06714,   0.04703
   0.02368,  -0.05157,  -0.02562,  -0.01524,  -0.04638,   0.01849,  -0.02822,   0.02368,  -0.07492,  -0.06195,  -0.03341,   0.03925,  -0.03081,  -0.01784,   0.02368,   0.01849,  -0.04379,  -0.01784,  -0.00746,  -0.02303,  -0.03081,   0.07298,  -0.03081,  -0.07492,   0.00811,  -0.05157,  -0.03860,  -0.03860,   0.00292,  -0.04897,  -0.02562,  -0.02822,  -0.02303,  -0.03600,  -0.02562,  -0.06454,   0.04444,  -0.04379,  -0.10606,   0.03406,  -0.05157,   0.04703,  -0.08530,  -0.02043,  -0.00746,   0.06260,   0.01849,  -0.00486,  -0.01005,  -0.00746,   0.05222,   0.02627,  -0.01524,   0.02368,   0.00033,   0.01589,  -0.01784,  -0.06454,   0.00292,   0.02627,   0.03406,  -0.03341,   0.05482,   0.01589
  -0.02043,   0.02627,  -0.04119,  -0.00227,  -0.02822,  -0.01524,  -0.03081,   0.00033,   0.01330,   0.00552,   0.04963,  -0.03081,   0.09893,  -0.01524,  -0.01524,   0.00292,   0.07557,   0.01071,  -0.00227,  -0.08790,  -0.02043,  -0.04379,  -0.01524,   0.00811,  -0.05676,  -0.04638,  -0.04379,  -0.02303,  -0.01265,   0.01589,   0.06520,   0.03665,   0.03146,   0.04184,  -0.02043,   0.00033,  -0.08271,  -0.04119,  -0.07492,   0.04184,   0.00292,   0.00811,  -0.06195,  -0.05157,   0.04444,  -0.02043,  -0.05416,  -0.00486,  -0.03600,  -0.04379,   0.04963,   0.03146,   0.04444,   0.01849,   0.00292,  -0.04119,   0.15342,   0.01330,  -0.02562,  -0.05157,  -0.03341,   0.06520,   0.02108,   0.07557
   0.03925,   0.04184,  -0.01784,  -0.04119,   0.02368,  -0.01265,   0.01330,  -0.01784,   0.06260,  -0.01784,   0.03406,   0.11450,  -0.06714,  -0.03081,   0.00033,   0.03925,   0.07817,   0.04703,  -0.04119,   0.00811,   0.01071,  -0.09049,   0.01589,  -0.05157,  -0.03600,  -0.02562,   0.08076,   0.04963,  -0.06195,   0.02627,   0.14304,  -0.04379,  -0.03341,  -0.01784,  -0.00486,  -0.02822,   0.04703,  -0.03860,   0.00033,   0.06779,  -0.03600,  -0.06195,  -0.07752,  -0.00227,   0.01071,  -0.05157,   0.02627,   0.04444,  -0.02822,  -0.01784,   0.08076,   0.02887,   0.07298,   0.00033,  -0.02043,   0.01071,   0.05222,  -0.00486,  -0.03600,   0.07298,   0.02887,   0.07557,   0.02627,   0.02887
   0.02627,  -0.03600,  -0.05416,   0.03406,  -0.03341,   0.00552,  -0.05157,  -0.04638,  -0.03341,   0.03925,   0.03665,   0.03925,   0.05222,  -0.00486,   0.06520,   0.04184,   0.11190,   0.02108,   0.03146,   0.00552,   0.02627,   0.03146,  -0.02303,  -0.01524,  -0.01265,   0.02887,   0.06520,  -0.03081,   0.01330,   0.03146,   0.06001,  -0.03081,   0.03406,   0.00292,  -0.04638,  -0.09828,   0.05741,   0.06520,  -0.01524,   0.00292,  -0.04897,  -0.09049,  -0.08011,  -0.02562,  -0.04379,  -0.05676,   0.04444,   0.02627,   0.03665,  -0.04379,  -0.03600,   0.03406,   0.05222,   0.00033,  -0.03860,  -0.01524,  -0.01784,   0.07557,  -0.06195,   0.02887,   0.00552,   0.01849,   0.03406,   0.00292
   0.00552,   0.01849,   0.01071,   0.10412,  -0.00227,   0.01589,   0.04184,   0.01589,   0.01589,   0.00552,  -0.02822,   0.03925,   0.00811,  -0.00227,   0.05482,  -0.05416,  -0.04379,  -0.03341,  -0.06454,  -0.03860,  -0.03341,   0.01071,  -0.04379,   0.02108,  -0.00486,  -0.03600,  -0.01005,  -0.00746,  -0.02822,   0.06779,   0.03665,  -0.01265,   0.04703,   0.01849,  -0.01265,  -0.05416,  -0.01524,  -0.06454,  -0.00486,   0.06779,   0.06260,  -0.01524,  -0.02562,   0.02627,  -0.03860,   0.04184,  -0.02562,   0.03925,  -0.03341,  -0.04638,   0.01849,  -0.04897,  -0.01005,   0.03665,  -0.05416,   0.02887,   0.10412,   0.00033,  -0.06714,   0.00033,  -0.02562,   0.11190,   0.11450,  -0.00227
  -0.04379,   0.01849,  -0.01265,  -0.01784,   0.00811,   0.03665,  -0.03860,   0.04703,   0.07557,  -0.06454,  -0.08530,   0.10671,  -0.09828,   0.03925,   0.01589,   0.00033,  -0.02562,   0.00552,   0.03146,   0.07298,  -0.04638,   0.01330,   0.00552,   0.00292,  -0.03860,   0.03665,   0.03406,  -0.07752,  -0.06195,   0.02368,   0.02368,   0.01071,  -0.01265,  -0.00486,   0.07038,  -0.10087,  -0.02303,  -0.06195,  -0.08790,   0.01849,   0.00552,   0.01849,   0.00033,   0.00033,  -0.04897,   0.07817,  -0.04119,   0.00552,   0.01589,  -0.04638,   0.16639,  -0.05676,   0.01589,   0.01330,   0.04703,  -0.02822,  -0.01265,  -0.02303,   0.03146,   0.01589,   0.02368,   0.02368,   0.00552,   0.01589
  -0.02043,  -0.02303,   0.01589,   0.07557,  -0.02303,  -0.02303,   0.02108,  -0.04379,   0.00292,  -0.04638,   0.00033,  -0.02043,  -0.02303,   0.01071,  -0.07752,  -0.00746,  -0.03600,  -0.02562,  -0.08271,  -0.12682,   0.02627,  -0.05935,   0.00552,   0.01330,   0.02887,   0.00552,   0.06001,   0.01589,  -0.02562,  -0.06973,   0.03146,  -0.03600,   0.07557,   0.01071,  -0.01005,   0.01071,   0.03146,   0.00292,  -0.06195,   0.03925,  -0.03341,   0.09633,  -0.03600,  -0.03341,  -0.00746,  -0.01784,   0.00552,   0.03406,  -0.01784,   0.02627,  -0.01524,  -0.02043,  -0.03860,   0.03665,   0.01589,  -0.01005,   0.10152,  -0.00227,  -0.04379,   0.02627,  -0.08530,   0.04184,  -0.01005,   0.07038
